tree
version=v3
num_class=1
num_tree_per_iteration=1
label_index=0
max_feature_idx=2499
objective=binary sigmoid:1
feature_names=Column_0 Column_1 Column_2 Column_3 Column_4 Column_5 Column_6 Column_7 Column_8 Column_9 Column_10 Column_11 Column_12 Column_13 Column_14 Column_15 Column_16 Column_17 Column_18 Column_19 Column_20 Column_21 Column_22 Column_23 Column_24 Column_25 Column_26 Column_27 Column_28 Column_29 Column_30 Column_31 Column_32 Column_33 Column_34 Column_35 Column_36 Column_37 Column_38 Column_39 Column_40 Column_41 Column_42 Column_43 Column_44 Column_45 Column_46 Column_47 Column_48 Column_49 Column_50 Column_51 Column_52 Column_53 Column_54 Column_55 Column_56 Column_57 Column_58 Column_59 Column_60 Column_61 Column_62 Column_63 Column_64 Column_65 Column_66 Column_67 Column_68 Column_69 Column_70 Column_71 Column_72 Column_73 Column_74 Column_75 Column_76 Column_77 Column_78 Column_79 Column_80 Column_81 Column_82 Column_83 Column_84 Column_85 Column_86 Column_87 Column_88 Column_89 Column_90 Column_91 Column_92 Column_93 Column_94 Column_95 Column_96 Column_97 Column_98 Column_99 Column_100 Column_101 Column_102 Column_103 Column_104 Column_105 Column_106 Column_107 Column_108 Column_109 Column_110 Column_111 Column_112 Column_113 Column_114 Column_115 Column_116 Column_117 Column_118 Column_119 Column_120 Column_121 Column_122 Column_123 Column_124 Column_125 Column_126 Column_127 Column_128 Column_129 Column_130 Column_131 Column_132 Column_133 Column_134 Column_135 Column_136 Column_137 Column_138 Column_139 Column_140 Column_141 Column_142 Column_143 Column_144 Column_145 Column_146 Column_147 Column_148 Column_149 Column_150 Column_151 Column_152 Column_153 Column_154 Column_155 Column_156 Column_157 Column_158 Column_159 Column_160 Column_161 Column_162 Column_163 Column_164 Column_165 Column_166 Column_167 Column_168 Column_169 Column_170 Column_171 Column_172 Column_173 Column_174 Column_175 Column_176 Column_177 Column_178 Column_179 Column_180 Column_181 Column_182 Column_183 Column_184 Column_185 Column_186 Column_187 Column_188 Column_189 Column_190 Column_191 Column_192 Column_193 Column_194 Column_195 Column_196 Column_197 Column_198 Column_199 Column_200 Column_201 Column_202 Column_203 Column_204 Column_205 Column_206 Column_207 Column_208 Column_209 Column_210 Column_211 Column_212 Column_213 Column_214 Column_215 Column_216 Column_217 Column_218 Column_219 Column_220 Column_221 Column_222 Column_223 Column_224 Column_225 Column_226 Column_227 Column_228 Column_229 Column_230 Column_231 Column_232 Column_233 Column_234 Column_235 Column_236 Column_237 Column_238 Column_239 Column_240 Column_241 Column_242 Column_243 Column_244 Column_245 Column_246 Column_247 Column_248 Column_249 Column_250 Column_251 Column_252 Column_253 Column_254 Column_255 Column_256 Column_257 Column_258 Column_259 Column_260 Column_261 Column_262 Column_263 Column_264 Column_265 Column_266 Column_267 Column_268 Column_269 Column_270 Column_271 Column_272 Column_273 Column_274 Column_275 Column_276 Column_277 Column_278 Column_279 Column_280 Column_281 Column_282 Column_283 Column_284 Column_285 Column_286 Column_287 Column_288 Column_289 Column_290 Column_291 Column_292 Column_293 Column_294 Column_295 Column_296 Column_297 Column_298 Column_299 Column_300 Column_301 Column_302 Column_303 Column_304 Column_305 Column_306 Column_307 Column_308 Column_309 Column_310 Column_311 Column_312 Column_313 Column_314 Column_315 Column_316 Column_317 Column_318 Column_319 Column_320 Column_321 Column_322 Column_323 Column_324 Column_325 Column_326 Column_327 Column_328 Column_329 Column_330 Column_331 Column_332 Column_333 Column_334 Column_335 Column_336 Column_337 Column_338 Column_339 Column_340 Column_341 Column_342 Column_343 Column_344 Column_345 Column_346 Column_347 Column_348 Column_349 Column_350 Column_351 Column_352 Column_353 Column_354 Column_355 Column_356 Column_357 Column_358 Column_359 Column_360 Column_361 Column_362 Column_363 Column_364 Column_365 Column_366 Column_367 Column_368 Column_369 Column_370 Column_371 Column_372 Column_373 Column_374 Column_375 Column_376 Column_377 Column_378 Column_379 Column_380 Column_381 Column_382 Column_383 Column_384 Column_385 Column_386 Column_387 Column_388 Column_389 Column_390 Column_391 Column_392 Column_393 Column_394 Column_395 Column_396 Column_397 Column_398 Column_399 Column_400 Column_401 Column_402 Column_403 Column_404 Column_405 Column_406 Column_407 Column_408 Column_409 Column_410 Column_411 Column_412 Column_413 Column_414 Column_415 Column_416 Column_417 Column_418 Column_419 Column_420 Column_421 Column_422 Column_423 Column_424 Column_425 Column_426 Column_427 Column_428 Column_429 Column_430 Column_431 Column_432 Column_433 Column_434 Column_435 Column_436 Column_437 Column_438 Column_439 Column_440 Column_441 Column_442 Column_443 Column_444 Column_445 Column_446 Column_447 Column_448 Column_449 Column_450 Column_451 Column_452 Column_453 Column_454 Column_455 Column_456 Column_457 Column_458 Column_459 Column_460 Column_461 Column_462 Column_463 Column_464 Column_465 Column_466 Column_467 Column_468 Column_469 Column_470 Column_471 Column_472 Column_473 Column_474 Column_475 Column_476 Column_477 Column_478 Column_479 Column_480 Column_481 Column_482 Column_483 Column_484 Column_485 Column_486 Column_487 Column_488 Column_489 Column_490 Column_491 Column_492 Column_493 Column_494 Column_495 Column_496 Column_497 Column_498 Column_499 Column_500 Column_501 Column_502 Column_503 Column_504 Column_505 Column_506 Column_507 Column_508 Column_509 Column_510 Column_511 Column_512 Column_513 Column_514 Column_515 Column_516 Column_517 Column_518 Column_519 Column_520 Column_521 Column_522 Column_523 Column_524 Column_525 Column_526 Column_527 Column_528 Column_529 Column_530 Column_531 Column_532 Column_533 Column_534 Column_535 Column_536 Column_537 Column_538 Column_539 Column_540 Column_541 Column_542 Column_543 Column_544 Column_545 Column_546 Column_547 Column_548 Column_549 Column_550 Column_551 Column_552 Column_553 Column_554 Column_555 Column_556 Column_557 Column_558 Column_559 Column_560 Column_561 Column_562 Column_563 Column_564 Column_565 Column_566 Column_567 Column_568 Column_569 Column_570 Column_571 Column_572 Column_573 Column_574 Column_575 Column_576 Column_577 Column_578 Column_579 Column_580 Column_581 Column_582 Column_583 Column_584 Column_585 Column_586 Column_587 Column_588 Column_589 Column_590 Column_591 Column_592 Column_593 Column_594 Column_595 Column_596 Column_597 Column_598 Column_599 Column_600 Column_601 Column_602 Column_603 Column_604 Column_605 Column_606 Column_607 Column_608 Column_609 Column_610 Column_611 Column_612 Column_613 Column_614 Column_615 Column_616 Column_617 Column_618 Column_619 Column_620 Column_621 Column_622 Column_623 Column_624 Column_625 Column_626 Column_627 Column_628 Column_629 Column_630 Column_631 Column_632 Column_633 Column_634 Column_635 Column_636 Column_637 Column_638 Column_639 Column_640 Column_641 Column_642 Column_643 Column_644 Column_645 Column_646 Column_647 Column_648 Column_649 Column_650 Column_651 Column_652 Column_653 Column_654 Column_655 Column_656 Column_657 Column_658 Column_659 Column_660 Column_661 Column_662 Column_663 Column_664 Column_665 Column_666 Column_667 Column_668 Column_669 Column_670 Column_671 Column_672 Column_673 Column_674 Column_675 Column_676 Column_677 Column_678 Column_679 Column_680 Column_681 Column_682 Column_683 Column_684 Column_685 Column_686 Column_687 Column_688 Column_689 Column_690 Column_691 Column_692 Column_693 Column_694 Column_695 Column_696 Column_697 Column_698 Column_699 Column_700 Column_701 Column_702 Column_703 Column_704 Column_705 Column_706 Column_707 Column_708 Column_709 Column_710 Column_711 Column_712 Column_713 Column_714 Column_715 Column_716 Column_717 Column_718 Column_719 Column_720 Column_721 Column_722 Column_723 Column_724 Column_725 Column_726 Column_727 Column_728 Column_729 Column_730 Column_731 Column_732 Column_733 Column_734 Column_735 Column_736 Column_737 Column_738 Column_739 Column_740 Column_741 Column_742 Column_743 Column_744 Column_745 Column_746 Column_747 Column_748 Column_749 Column_750 Column_751 Column_752 Column_753 Column_754 Column_755 Column_756 Column_757 Column_758 Column_759 Column_760 Column_761 Column_762 Column_763 Column_764 Column_765 Column_766 Column_767 Column_768 Column_769 Column_770 Column_771 Column_772 Column_773 Column_774 Column_775 Column_776 Column_777 Column_778 Column_779 Column_780 Column_781 Column_782 Column_783 Column_784 Column_785 Column_786 Column_787 Column_788 Column_789 Column_790 Column_791 Column_792 Column_793 Column_794 Column_795 Column_796 Column_797 Column_798 Column_799 Column_800 Column_801 Column_802 Column_803 Column_804 Column_805 Column_806 Column_807 Column_808 Column_809 Column_810 Column_811 Column_812 Column_813 Column_814 Column_815 Column_816 Column_817 Column_818 Column_819 Column_820 Column_821 Column_822 Column_823 Column_824 Column_825 Column_826 Column_827 Column_828 Column_829 Column_830 Column_831 Column_832 Column_833 Column_834 Column_835 Column_836 Column_837 Column_838 Column_839 Column_840 Column_841 Column_842 Column_843 Column_844 Column_845 Column_846 Column_847 Column_848 Column_849 Column_850 Column_851 Column_852 Column_853 Column_854 Column_855 Column_856 Column_857 Column_858 Column_859 Column_860 Column_861 Column_862 Column_863 Column_864 Column_865 Column_866 Column_867 Column_868 Column_869 Column_870 Column_871 Column_872 Column_873 Column_874 Column_875 Column_876 Column_877 Column_878 Column_879 Column_880 Column_881 Column_882 Column_883 Column_884 Column_885 Column_886 Column_887 Column_888 Column_889 Column_890 Column_891 Column_892 Column_893 Column_894 Column_895 Column_896 Column_897 Column_898 Column_899 Column_900 Column_901 Column_902 Column_903 Column_904 Column_905 Column_906 Column_907 Column_908 Column_909 Column_910 Column_911 Column_912 Column_913 Column_914 Column_915 Column_916 Column_917 Column_918 Column_919 Column_920 Column_921 Column_922 Column_923 Column_924 Column_925 Column_926 Column_927 Column_928 Column_929 Column_930 Column_931 Column_932 Column_933 Column_934 Column_935 Column_936 Column_937 Column_938 Column_939 Column_940 Column_941 Column_942 Column_943 Column_944 Column_945 Column_946 Column_947 Column_948 Column_949 Column_950 Column_951 Column_952 Column_953 Column_954 Column_955 Column_956 Column_957 Column_958 Column_959 Column_960 Column_961 Column_962 Column_963 Column_964 Column_965 Column_966 Column_967 Column_968 Column_969 Column_970 Column_971 Column_972 Column_973 Column_974 Column_975 Column_976 Column_977 Column_978 Column_979 Column_980 Column_981 Column_982 Column_983 Column_984 Column_985 Column_986 Column_987 Column_988 Column_989 Column_990 Column_991 Column_992 Column_993 Column_994 Column_995 Column_996 Column_997 Column_998 Column_999 Column_1000 Column_1001 Column_1002 Column_1003 Column_1004 Column_1005 Column_1006 Column_1007 Column_1008 Column_1009 Column_1010 Column_1011 Column_1012 Column_1013 Column_1014 Column_1015 Column_1016 Column_1017 Column_1018 Column_1019 Column_1020 Column_1021 Column_1022 Column_1023 Column_1024 Column_1025 Column_1026 Column_1027 Column_1028 Column_1029 Column_1030 Column_1031 Column_1032 Column_1033 Column_1034 Column_1035 Column_1036 Column_1037 Column_1038 Column_1039 Column_1040 Column_1041 Column_1042 Column_1043 Column_1044 Column_1045 Column_1046 Column_1047 Column_1048 Column_1049 Column_1050 Column_1051 Column_1052 Column_1053 Column_1054 Column_1055 Column_1056 Column_1057 Column_1058 Column_1059 Column_1060 Column_1061 Column_1062 Column_1063 Column_1064 Column_1065 Column_1066 Column_1067 Column_1068 Column_1069 Column_1070 Column_1071 Column_1072 Column_1073 Column_1074 Column_1075 Column_1076 Column_1077 Column_1078 Column_1079 Column_1080 Column_1081 Column_1082 Column_1083 Column_1084 Column_1085 Column_1086 Column_1087 Column_1088 Column_1089 Column_1090 Column_1091 Column_1092 Column_1093 Column_1094 Column_1095 Column_1096 Column_1097 Column_1098 Column_1099 Column_1100 Column_1101 Column_1102 Column_1103 Column_1104 Column_1105 Column_1106 Column_1107 Column_1108 Column_1109 Column_1110 Column_1111 Column_1112 Column_1113 Column_1114 Column_1115 Column_1116 Column_1117 Column_1118 Column_1119 Column_1120 Column_1121 Column_1122 Column_1123 Column_1124 Column_1125 Column_1126 Column_1127 Column_1128 Column_1129 Column_1130 Column_1131 Column_1132 Column_1133 Column_1134 Column_1135 Column_1136 Column_1137 Column_1138 Column_1139 Column_1140 Column_1141 Column_1142 Column_1143 Column_1144 Column_1145 Column_1146 Column_1147 Column_1148 Column_1149 Column_1150 Column_1151 Column_1152 Column_1153 Column_1154 Column_1155 Column_1156 Column_1157 Column_1158 Column_1159 Column_1160 Column_1161 Column_1162 Column_1163 Column_1164 Column_1165 Column_1166 Column_1167 Column_1168 Column_1169 Column_1170 Column_1171 Column_1172 Column_1173 Column_1174 Column_1175 Column_1176 Column_1177 Column_1178 Column_1179 Column_1180 Column_1181 Column_1182 Column_1183 Column_1184 Column_1185 Column_1186 Column_1187 Column_1188 Column_1189 Column_1190 Column_1191 Column_1192 Column_1193 Column_1194 Column_1195 Column_1196 Column_1197 Column_1198 Column_1199 Column_1200 Column_1201 Column_1202 Column_1203 Column_1204 Column_1205 Column_1206 Column_1207 Column_1208 Column_1209 Column_1210 Column_1211 Column_1212 Column_1213 Column_1214 Column_1215 Column_1216 Column_1217 Column_1218 Column_1219 Column_1220 Column_1221 Column_1222 Column_1223 Column_1224 Column_1225 Column_1226 Column_1227 Column_1228 Column_1229 Column_1230 Column_1231 Column_1232 Column_1233 Column_1234 Column_1235 Column_1236 Column_1237 Column_1238 Column_1239 Column_1240 Column_1241 Column_1242 Column_1243 Column_1244 Column_1245 Column_1246 Column_1247 Column_1248 Column_1249 Column_1250 Column_1251 Column_1252 Column_1253 Column_1254 Column_1255 Column_1256 Column_1257 Column_1258 Column_1259 Column_1260 Column_1261 Column_1262 Column_1263 Column_1264 Column_1265 Column_1266 Column_1267 Column_1268 Column_1269 Column_1270 Column_1271 Column_1272 Column_1273 Column_1274 Column_1275 Column_1276 Column_1277 Column_1278 Column_1279 Column_1280 Column_1281 Column_1282 Column_1283 Column_1284 Column_1285 Column_1286 Column_1287 Column_1288 Column_1289 Column_1290 Column_1291 Column_1292 Column_1293 Column_1294 Column_1295 Column_1296 Column_1297 Column_1298 Column_1299 Column_1300 Column_1301 Column_1302 Column_1303 Column_1304 Column_1305 Column_1306 Column_1307 Column_1308 Column_1309 Column_1310 Column_1311 Column_1312 Column_1313 Column_1314 Column_1315 Column_1316 Column_1317 Column_1318 Column_1319 Column_1320 Column_1321 Column_1322 Column_1323 Column_1324 Column_1325 Column_1326 Column_1327 Column_1328 Column_1329 Column_1330 Column_1331 Column_1332 Column_1333 Column_1334 Column_1335 Column_1336 Column_1337 Column_1338 Column_1339 Column_1340 Column_1341 Column_1342 Column_1343 Column_1344 Column_1345 Column_1346 Column_1347 Column_1348 Column_1349 Column_1350 Column_1351 Column_1352 Column_1353 Column_1354 Column_1355 Column_1356 Column_1357 Column_1358 Column_1359 Column_1360 Column_1361 Column_1362 Column_1363 Column_1364 Column_1365 Column_1366 Column_1367 Column_1368 Column_1369 Column_1370 Column_1371 Column_1372 Column_1373 Column_1374 Column_1375 Column_1376 Column_1377 Column_1378 Column_1379 Column_1380 Column_1381 Column_1382 Column_1383 Column_1384 Column_1385 Column_1386 Column_1387 Column_1388 Column_1389 Column_1390 Column_1391 Column_1392 Column_1393 Column_1394 Column_1395 Column_1396 Column_1397 Column_1398 Column_1399 Column_1400 Column_1401 Column_1402 Column_1403 Column_1404 Column_1405 Column_1406 Column_1407 Column_1408 Column_1409 Column_1410 Column_1411 Column_1412 Column_1413 Column_1414 Column_1415 Column_1416 Column_1417 Column_1418 Column_1419 Column_1420 Column_1421 Column_1422 Column_1423 Column_1424 Column_1425 Column_1426 Column_1427 Column_1428 Column_1429 Column_1430 Column_1431 Column_1432 Column_1433 Column_1434 Column_1435 Column_1436 Column_1437 Column_1438 Column_1439 Column_1440 Column_1441 Column_1442 Column_1443 Column_1444 Column_1445 Column_1446 Column_1447 Column_1448 Column_1449 Column_1450 Column_1451 Column_1452 Column_1453 Column_1454 Column_1455 Column_1456 Column_1457 Column_1458 Column_1459 Column_1460 Column_1461 Column_1462 Column_1463 Column_1464 Column_1465 Column_1466 Column_1467 Column_1468 Column_1469 Column_1470 Column_1471 Column_1472 Column_1473 Column_1474 Column_1475 Column_1476 Column_1477 Column_1478 Column_1479 Column_1480 Column_1481 Column_1482 Column_1483 Column_1484 Column_1485 Column_1486 Column_1487 Column_1488 Column_1489 Column_1490 Column_1491 Column_1492 Column_1493 Column_1494 Column_1495 Column_1496 Column_1497 Column_1498 Column_1499 Column_1500 Column_1501 Column_1502 Column_1503 Column_1504 Column_1505 Column_1506 Column_1507 Column_1508 Column_1509 Column_1510 Column_1511 Column_1512 Column_1513 Column_1514 Column_1515 Column_1516 Column_1517 Column_1518 Column_1519 Column_1520 Column_1521 Column_1522 Column_1523 Column_1524 Column_1525 Column_1526 Column_1527 Column_1528 Column_1529 Column_1530 Column_1531 Column_1532 Column_1533 Column_1534 Column_1535 Column_1536 Column_1537 Column_1538 Column_1539 Column_1540 Column_1541 Column_1542 Column_1543 Column_1544 Column_1545 Column_1546 Column_1547 Column_1548 Column_1549 Column_1550 Column_1551 Column_1552 Column_1553 Column_1554 Column_1555 Column_1556 Column_1557 Column_1558 Column_1559 Column_1560 Column_1561 Column_1562 Column_1563 Column_1564 Column_1565 Column_1566 Column_1567 Column_1568 Column_1569 Column_1570 Column_1571 Column_1572 Column_1573 Column_1574 Column_1575 Column_1576 Column_1577 Column_1578 Column_1579 Column_1580 Column_1581 Column_1582 Column_1583 Column_1584 Column_1585 Column_1586 Column_1587 Column_1588 Column_1589 Column_1590 Column_1591 Column_1592 Column_1593 Column_1594 Column_1595 Column_1596 Column_1597 Column_1598 Column_1599 Column_1600 Column_1601 Column_1602 Column_1603 Column_1604 Column_1605 Column_1606 Column_1607 Column_1608 Column_1609 Column_1610 Column_1611 Column_1612 Column_1613 Column_1614 Column_1615 Column_1616 Column_1617 Column_1618 Column_1619 Column_1620 Column_1621 Column_1622 Column_1623 Column_1624 Column_1625 Column_1626 Column_1627 Column_1628 Column_1629 Column_1630 Column_1631 Column_1632 Column_1633 Column_1634 Column_1635 Column_1636 Column_1637 Column_1638 Column_1639 Column_1640 Column_1641 Column_1642 Column_1643 Column_1644 Column_1645 Column_1646 Column_1647 Column_1648 Column_1649 Column_1650 Column_1651 Column_1652 Column_1653 Column_1654 Column_1655 Column_1656 Column_1657 Column_1658 Column_1659 Column_1660 Column_1661 Column_1662 Column_1663 Column_1664 Column_1665 Column_1666 Column_1667 Column_1668 Column_1669 Column_1670 Column_1671 Column_1672 Column_1673 Column_1674 Column_1675 Column_1676 Column_1677 Column_1678 Column_1679 Column_1680 Column_1681 Column_1682 Column_1683 Column_1684 Column_1685 Column_1686 Column_1687 Column_1688 Column_1689 Column_1690 Column_1691 Column_1692 Column_1693 Column_1694 Column_1695 Column_1696 Column_1697 Column_1698 Column_1699 Column_1700 Column_1701 Column_1702 Column_1703 Column_1704 Column_1705 Column_1706 Column_1707 Column_1708 Column_1709 Column_1710 Column_1711 Column_1712 Column_1713 Column_1714 Column_1715 Column_1716 Column_1717 Column_1718 Column_1719 Column_1720 Column_1721 Column_1722 Column_1723 Column_1724 Column_1725 Column_1726 Column_1727 Column_1728 Column_1729 Column_1730 Column_1731 Column_1732 Column_1733 Column_1734 Column_1735 Column_1736 Column_1737 Column_1738 Column_1739 Column_1740 Column_1741 Column_1742 Column_1743 Column_1744 Column_1745 Column_1746 Column_1747 Column_1748 Column_1749 Column_1750 Column_1751 Column_1752 Column_1753 Column_1754 Column_1755 Column_1756 Column_1757 Column_1758 Column_1759 Column_1760 Column_1761 Column_1762 Column_1763 Column_1764 Column_1765 Column_1766 Column_1767 Column_1768 Column_1769 Column_1770 Column_1771 Column_1772 Column_1773 Column_1774 Column_1775 Column_1776 Column_1777 Column_1778 Column_1779 Column_1780 Column_1781 Column_1782 Column_1783 Column_1784 Column_1785 Column_1786 Column_1787 Column_1788 Column_1789 Column_1790 Column_1791 Column_1792 Column_1793 Column_1794 Column_1795 Column_1796 Column_1797 Column_1798 Column_1799 Column_1800 Column_1801 Column_1802 Column_1803 Column_1804 Column_1805 Column_1806 Column_1807 Column_1808 Column_1809 Column_1810 Column_1811 Column_1812 Column_1813 Column_1814 Column_1815 Column_1816 Column_1817 Column_1818 Column_1819 Column_1820 Column_1821 Column_1822 Column_1823 Column_1824 Column_1825 Column_1826 Column_1827 Column_1828 Column_1829 Column_1830 Column_1831 Column_1832 Column_1833 Column_1834 Column_1835 Column_1836 Column_1837 Column_1838 Column_1839 Column_1840 Column_1841 Column_1842 Column_1843 Column_1844 Column_1845 Column_1846 Column_1847 Column_1848 Column_1849 Column_1850 Column_1851 Column_1852 Column_1853 Column_1854 Column_1855 Column_1856 Column_1857 Column_1858 Column_1859 Column_1860 Column_1861 Column_1862 Column_1863 Column_1864 Column_1865 Column_1866 Column_1867 Column_1868 Column_1869 Column_1870 Column_1871 Column_1872 Column_1873 Column_1874 Column_1875 Column_1876 Column_1877 Column_1878 Column_1879 Column_1880 Column_1881 Column_1882 Column_1883 Column_1884 Column_1885 Column_1886 Column_1887 Column_1888 Column_1889 Column_1890 Column_1891 Column_1892 Column_1893 Column_1894 Column_1895 Column_1896 Column_1897 Column_1898 Column_1899 Column_1900 Column_1901 Column_1902 Column_1903 Column_1904 Column_1905 Column_1906 Column_1907 Column_1908 Column_1909 Column_1910 Column_1911 Column_1912 Column_1913 Column_1914 Column_1915 Column_1916 Column_1917 Column_1918 Column_1919 Column_1920 Column_1921 Column_1922 Column_1923 Column_1924 Column_1925 Column_1926 Column_1927 Column_1928 Column_1929 Column_1930 Column_1931 Column_1932 Column_1933 Column_1934 Column_1935 Column_1936 Column_1937 Column_1938 Column_1939 Column_1940 Column_1941 Column_1942 Column_1943 Column_1944 Column_1945 Column_1946 Column_1947 Column_1948 Column_1949 Column_1950 Column_1951 Column_1952 Column_1953 Column_1954 Column_1955 Column_1956 Column_1957 Column_1958 Column_1959 Column_1960 Column_1961 Column_1962 Column_1963 Column_1964 Column_1965 Column_1966 Column_1967 Column_1968 Column_1969 Column_1970 Column_1971 Column_1972 Column_1973 Column_1974 Column_1975 Column_1976 Column_1977 Column_1978 Column_1979 Column_1980 Column_1981 Column_1982 Column_1983 Column_1984 Column_1985 Column_1986 Column_1987 Column_1988 Column_1989 Column_1990 Column_1991 Column_1992 Column_1993 Column_1994 Column_1995 Column_1996 Column_1997 Column_1998 Column_1999 Column_2000 Column_2001 Column_2002 Column_2003 Column_2004 Column_2005 Column_2006 Column_2007 Column_2008 Column_2009 Column_2010 Column_2011 Column_2012 Column_2013 Column_2014 Column_2015 Column_2016 Column_2017 Column_2018 Column_2019 Column_2020 Column_2021 Column_2022 Column_2023 Column_2024 Column_2025 Column_2026 Column_2027 Column_2028 Column_2029 Column_2030 Column_2031 Column_2032 Column_2033 Column_2034 Column_2035 Column_2036 Column_2037 Column_2038 Column_2039 Column_2040 Column_2041 Column_2042 Column_2043 Column_2044 Column_2045 Column_2046 Column_2047 Column_2048 Column_2049 Column_2050 Column_2051 Column_2052 Column_2053 Column_2054 Column_2055 Column_2056 Column_2057 Column_2058 Column_2059 Column_2060 Column_2061 Column_2062 Column_2063 Column_2064 Column_2065 Column_2066 Column_2067 Column_2068 Column_2069 Column_2070 Column_2071 Column_2072 Column_2073 Column_2074 Column_2075 Column_2076 Column_2077 Column_2078 Column_2079 Column_2080 Column_2081 Column_2082 Column_2083 Column_2084 Column_2085 Column_2086 Column_2087 Column_2088 Column_2089 Column_2090 Column_2091 Column_2092 Column_2093 Column_2094 Column_2095 Column_2096 Column_2097 Column_2098 Column_2099 Column_2100 Column_2101 Column_2102 Column_2103 Column_2104 Column_2105 Column_2106 Column_2107 Column_2108 Column_2109 Column_2110 Column_2111 Column_2112 Column_2113 Column_2114 Column_2115 Column_2116 Column_2117 Column_2118 Column_2119 Column_2120 Column_2121 Column_2122 Column_2123 Column_2124 Column_2125 Column_2126 Column_2127 Column_2128 Column_2129 Column_2130 Column_2131 Column_2132 Column_2133 Column_2134 Column_2135 Column_2136 Column_2137 Column_2138 Column_2139 Column_2140 Column_2141 Column_2142 Column_2143 Column_2144 Column_2145 Column_2146 Column_2147 Column_2148 Column_2149 Column_2150 Column_2151 Column_2152 Column_2153 Column_2154 Column_2155 Column_2156 Column_2157 Column_2158 Column_2159 Column_2160 Column_2161 Column_2162 Column_2163 Column_2164 Column_2165 Column_2166 Column_2167 Column_2168 Column_2169 Column_2170 Column_2171 Column_2172 Column_2173 Column_2174 Column_2175 Column_2176 Column_2177 Column_2178 Column_2179 Column_2180 Column_2181 Column_2182 Column_2183 Column_2184 Column_2185 Column_2186 Column_2187 Column_2188 Column_2189 Column_2190 Column_2191 Column_2192 Column_2193 Column_2194 Column_2195 Column_2196 Column_2197 Column_2198 Column_2199 Column_2200 Column_2201 Column_2202 Column_2203 Column_2204 Column_2205 Column_2206 Column_2207 Column_2208 Column_2209 Column_2210 Column_2211 Column_2212 Column_2213 Column_2214 Column_2215 Column_2216 Column_2217 Column_2218 Column_2219 Column_2220 Column_2221 Column_2222 Column_2223 Column_2224 Column_2225 Column_2226 Column_2227 Column_2228 Column_2229 Column_2230 Column_2231 Column_2232 Column_2233 Column_2234 Column_2235 Column_2236 Column_2237 Column_2238 Column_2239 Column_2240 Column_2241 Column_2242 Column_2243 Column_2244 Column_2245 Column_2246 Column_2247 Column_2248 Column_2249 Column_2250 Column_2251 Column_2252 Column_2253 Column_2254 Column_2255 Column_2256 Column_2257 Column_2258 Column_2259 Column_2260 Column_2261 Column_2262 Column_2263 Column_2264 Column_2265 Column_2266 Column_2267 Column_2268 Column_2269 Column_2270 Column_2271 Column_2272 Column_2273 Column_2274 Column_2275 Column_2276 Column_2277 Column_2278 Column_2279 Column_2280 Column_2281 Column_2282 Column_2283 Column_2284 Column_2285 Column_2286 Column_2287 Column_2288 Column_2289 Column_2290 Column_2291 Column_2292 Column_2293 Column_2294 Column_2295 Column_2296 Column_2297 Column_2298 Column_2299 Column_2300 Column_2301 Column_2302 Column_2303 Column_2304 Column_2305 Column_2306 Column_2307 Column_2308 Column_2309 Column_2310 Column_2311 Column_2312 Column_2313 Column_2314 Column_2315 Column_2316 Column_2317 Column_2318 Column_2319 Column_2320 Column_2321 Column_2322 Column_2323 Column_2324 Column_2325 Column_2326 Column_2327 Column_2328 Column_2329 Column_2330 Column_2331 Column_2332 Column_2333 Column_2334 Column_2335 Column_2336 Column_2337 Column_2338 Column_2339 Column_2340 Column_2341 Column_2342 Column_2343 Column_2344 Column_2345 Column_2346 Column_2347 Column_2348 Column_2349 Column_2350 Column_2351 Column_2352 Column_2353 Column_2354 Column_2355 Column_2356 Column_2357 Column_2358 Column_2359 Column_2360 Column_2361 Column_2362 Column_2363 Column_2364 Column_2365 Column_2366 Column_2367 Column_2368 Column_2369 Column_2370 Column_2371 Column_2372 Column_2373 Column_2374 Column_2375 Column_2376 Column_2377 Column_2378 Column_2379 Column_2380 Column_2381 Column_2382 Column_2383 Column_2384 Column_2385 Column_2386 Column_2387 Column_2388 Column_2389 Column_2390 Column_2391 Column_2392 Column_2393 Column_2394 Column_2395 Column_2396 Column_2397 Column_2398 Column_2399 Column_2400 Column_2401 Column_2402 Column_2403 Column_2404 Column_2405 Column_2406 Column_2407 Column_2408 Column_2409 Column_2410 Column_2411 Column_2412 Column_2413 Column_2414 Column_2415 Column_2416 Column_2417 Column_2418 Column_2419 Column_2420 Column_2421 Column_2422 Column_2423 Column_2424 Column_2425 Column_2426 Column_2427 Column_2428 Column_2429 Column_2430 Column_2431 Column_2432 Column_2433 Column_2434 Column_2435 Column_2436 Column_2437 Column_2438 Column_2439 Column_2440 Column_2441 Column_2442 Column_2443 Column_2444 Column_2445 Column_2446 Column_2447 Column_2448 Column_2449 Column_2450 Column_2451 Column_2452 Column_2453 Column_2454 Column_2455 Column_2456 Column_2457 Column_2458 Column_2459 Column_2460 Column_2461 Column_2462 Column_2463 Column_2464 Column_2465 Column_2466 Column_2467 Column_2468 Column_2469 Column_2470 Column_2471 Column_2472 Column_2473 Column_2474 Column_2475 Column_2476 Column_2477 Column_2478 Column_2479 Column_2480 Column_2481 Column_2482 Column_2483 Column_2484 Column_2485 Column_2486 Column_2487 Column_2488 Column_2489 Column_2490 Column_2491 Column_2492 Column_2493 Column_2494 Column_2495 Column_2496 Column_2497 Column_2498 Column_2499
feature_infos=[0:0.76289438531856713] [0:0.35792948271996289] [0:0.24192913093303303] [0:0.26257455294959486] [0:0.98853117181392547] [0:0.38868456130878715] [0:0.73173897245187713] [0:0.49685914253315461] [0:0.3474303477532048] [0:0.61129712596573349] [0:0.56646050278367355] [0:0.47823659054175599] [0:0.2012292315148857] [0:0.56472520469139453] [0:0.35681300973760521] [0:0.3126419916270039] [0:0.40926808000463694] [0:0.21056667289224443] [0:0.15197139800877113] [0:0.18220596432586902] [0:0.18237690132169779] [0:0.23640771092890275] [0:0.26361035621290718] [0:0.11327108429889962] [0:0.23137154153434566] [0:0.15957135341365219] [0:0.20410005471465953] [0:0.34900314163738266] [0:0.14255416825360784] [0:0.27002042215814942] [0:0.26881474432402236] [0:0.17997472985206769] [0:0.25138274419537315] [0:0.1462177739650346] [0:0.27475717980399306] [0:0.20077539563000307] [0:0.20080186414107493] [0:0.3208952252607386] [0:0.3983508861459602] [0:0.27356129317618227] [0:0.31603294642926266] [0:0.27441885972684743] [0:0.27058302636001169] [0:0.43694878691266514] [0:0.28599548866465352] [0:0.37018779785511874] [0:0.55077318871546233] [0:0.67664308309898658] [0:0.55451741207043748] [0:0.33109902947789432] [0:0.34593940691319608] [0:0.63857888236755667] [0:0.31090680045853786] [0:0.56216934648886985] [0:0.49354603602469221] [0:0.27429524120747439] [0:0.34589894283989309] [0:0.44152306483667636] [0:0.34868693746394536] [0:0.42770159460410317] [0:0.17846412841855008] [0:0.21630607599418622] [0:0.24119700653531162] [0:0.37623355381357348] [0:0.26750012896098685] [0:0.2507809650505422] [0:0.23871743592522912] [0:0.24717963160361342] [0:0.39704965167352546] [0:0.19348478853410406] [0:0.32697316825371708] [0:0.12718564023628959] [0:0.49069099374596847] [0:0.39877663332947455] [0:0.16214587280759155] [0:0.27445999550031341] [0:0.30408940691371406] [0:0.12351474128909609] [0:0.56626197501160636] [0:0.27032581984310217] [0:0.15584268220190417] [0:0.18242697876138741] [0:0.19068878365919709] [0:0.59128951797729901] [0:0.14532570425806551] [0:0.15251559910141904] [0:0.29886864728840978] [0:0.16434274457818607] [0:0.1332597646154812] [0:0.25302630764265605] [0:0.14312993058685852] [0:0.25880445683063247] [0:0.20265545957284201] [0:0.10780092821615778] [0:0.41930668124611409] [0:0.23017106705432164] [0:0.20048623034637886] [0:0.35924357076586788] [0:0.16345021734891374] [0:0.5005541624799078] [0:0.22137870341725527] [0:0.30080440114849882] [0:0.13688415549871277] [0:0.1720348078028936] [0:0.211091550718184] [0:0.11604301062759849] [0:0.19942327562699588] [0:0.22197375028181543] [0:0.24742370172507253] [0:0.21787860191424002] [0:0.41595149827610667] [0:0.61870888897872789] [0:0.54269589905209992] [0:0.1964361813522342] [0:0.25678300523109615] [0:0.21975392346371408] [0:0.29394646592468016] [0:0.45243614514612329] [0:0.30923513837584404] [0:0.46242673876137413] [0:0.1868621545484821] [0:0.79876030724735581] [0:0.18408641485009281] [0:0.27495198462989162] [0:0.37078052031751313] [0:0.31817938396778039] [0:0.26521012156456353] [0:0.3939839203495506] [0:0.29134466541863768] [0:0.2415685768792242] [0:0.37908764572590226] [0:0.29550982327255165] [0:0.31050886785894788] [0:0.29416391663327174] [0:0.25159936755411183] [0:0.27583133084617872] [0:0.71592849241644752] [0:0.47343261631755934] [0:0.26158528200630926] [0:0.22262875303364923] [0:0.13582863725284955] [0:0.24201827731848288] [0:0.25680547460834463] [0:0.37592715770449209] [0:0.20865455318037338] [0:0.28747507404072586] [0:0.28125329892732132] [0:0.29743033024471482] [0:0.23784204329765554] [0:0.34460796957080325] [0:0.29084787829532277] [0:0.3187417215421417] [0:0.53974301806783764] [0:0.51102915620056844] [0:0.28641617311232948] [0:0.25094561646106639] [0:0.8029906269135616] [0:0.54992811066886294] [0:0.54430778129255231] [0:0.41126251358836891] [0:0.41942557250054058] [0:0.24622314432154108] [0:0.25515210732204141] [0:0.33330941399835579] [0:0.25955913208391257] [0:0.33618822092344258] [0:1] [0:0.23963521443188668] [0:0.30372026001415453] [0:0.92117715894909658] [0:0.2994028288761556] [0:0.40932004296448943] [0:0.29947281742791754] [0:0.33692415747417498] [0:0.43484968282583997] [0:0.5789649706456883] [0:0.2677059927231778] [0:0.20244807907596662] [0:0.58968649692722519] [0:0.49507159319822264] [0:0.33939084915578338] [0:0.49729208963584676] [0:0.26966828091496231] [0:0.33449131613524247] [0:0.51914470313441541] [0:0.21296749526687875] [0:0.2377893837374784] [0:0.22493791421293385] [0:0.28948416919697312] [0:0.24552689059077976] [0:0.17081991548869296] [0:0.27816605348552176] [0:0.22324479367318459] [0:0.17464174560324411] [0:0.45591913889599162] [0:0.604826486103618] [0:0.41968215046524388] [0:0.43256232038014725] [0:0.19849210845145479] [0:0.77235521351785086] [0:0.39989920831453074] [0:0.39290687399271162] [0:0.31554054258564362] [0:0.26312567599903769] [0:0.27207827067593582] [0:0.20157792073438754] [0:0.54540933899986899] [0:0.54950236268200336] [0:0.3946905261519309] [0:0.6646322594335663] [0:0.33254374351222432] [0:0.55540816498700019] [0:0.17377563373163674] [0:0.26421891733442188] [0:0.70665885434508668] [0:0.64286001812219218] [0:0.31478356564241594] [0:0.42589094218689938] [0:0.39530320119469758] [0:0.31701697626968461] [0:0.42132027175363468] [0:0.36860569293268347] [0:0.25008716771140449] [0:0.62947724924043336] [0:0.33220925920080469] [0:0.1626670216987316] [0:0.27975607534319036] [0:0.37566505991658194] [0:0.42042695791332563] [0:0.50744692752504983] [0:0.22879119716296456] [0:0.41125071930861162] [0:0.68603210344008014] [0:0.56334066978414787] [0:0.27452869640299754] [0:0.25117992534469613] [0:0.27098575286391458] [0:0.29896174386137908] [0:0.20937228070025118] [0:0.16349207758248083] [0:0.17361686693361914] [0:0.79294470481000301] [0:0.55786065138105279] [0:0.39125660770510684] [0:0.58104795245144469] [0:0.62181282942852478] none [0:0.45117186628073019] [0:0.35031087404977207] [0:0.28525157273416368] [0:0.23445343985128927] [0:0.30982958403141714] [0:0.55953628302943492] [0:0.25971217080788228] [0:0.15831843970373463] [0:0.55987362805764118] [0:1] [0:0.3924092350817398] [0:0.4858660296387981] [0:0.22818113256669648] [0:0.68248518607456643] [0:0.29087786152572681] [0:0.27540357941951737] [0:0.22482485516673076] [0:0.28115308900121116] [0:0.35565421401953723] [0:0.27983795287282648] [0:0.26768234736416074] [0:0.21074958244176661] [0:0.48749617952574209] [0:0.37650872105279692] [0:0.18481780880788659] [0:0.13244686875224276] [0:0.21893956491858702] [0:0.30257082627013443] [0:0.39753090526277568] [0:0.30695300837064488] [0:0.25307500487654389] [0:0.47602242792023491] [0:0.3813795138900235] [0:0.54086581836585701] [0:0.33849305622104348] [0:0.43693836416194493] [0:0.27975184158125432] [0:0.71410035952096484] [0:0.56977180407452399] [0:0.29935888832663693] [0:0.15951255587829391] [0:0.59515646117972854] [0:0.25043767225693508] [0:0.43108280066218718] [0:0.26769266562475019] [0:0.23385020754861241] [0:0.32536304940951405] [0:0.30550760498105278] [0:0.49265587804038774] [0:0.62448476318311874] [0:0.43892144276185235] [0:0.41730304254488043] [0:0.26373415350334278] [0:0.62948766974690151] [0:0.44072769345656349] [0:0.47865566452345487] [0:0.35996745074229985] [0:0.54294801844466112] [0:0.4010902357557744] [0:0.27021449600855257] [0:0.20475680612430186] [0:0.35356742577719769] [0:0.23294256488130513] [0:0.32557462302708945] [0:0.47599210384030194] [0:0.31190510541516325] [0:0.38993368240944876] [0:0.47407699294794631] [0:0.39831550883384448] [0:0.86372593852738577] [0:0.23472690190992804] [0:0.22260123871231563] [0:0.22205329262463536] [0:0.49714376587529757] [0:0.27349308362071845] [0:0.19600436501056467] [0:0.2687222809494772] [0:0.18855892300276922] [0:0.28854425320001797] [0:0.24093910388668158] [0:0.3276707029780358] [0:0.19658452087374642] [0:0.19748877504370282] [0:0.87456347727885575] [0:0.75908461316496467] [0:0.6903777497461816] [0:0.30211178157877222] [0:0.46251909470816016] [0:0.65796638889378001] [0:0.26287921914939522] [0:0.34435459032924975] [0:0.5389936699665645] [0:0.8202718385298885] [0:0.21099989576529801] [0:0.6409278224857935] [0:0.42413255683979501] [0:0.25866780449905302] [0:0.37963601286036353] [0:0.47464244822865598] [0:0.64100823446222543] [0:0.21493631981825323] [0:0.49607653527566609] [0:0.43785726042735085] [0:0.47493101383576586] [0:0.43294691027135274] [0:0.51918029637512486] [0:0.52887000840151421] [0:0.68192102593021475] [0:0.5154644191408545] [0:0.71338127847242661] [0:0.4640564309462562] [0:0.48233563001914825] [0:0.628080066200982] [0:0.6803661058854048] [0:0.52057128004421338] [0:0.58307253108132873] [0:0.88996680309692422] [0:0.70989698098622322] [0:0.39291548235642976] [0:0.35463734811768965] none [0:0.55521316442372215] [0:0.3176570458386419] [0:0.42710674140963156] [0:0.28846442324496518] [0:0.41026388147817489] [0:0.76663672918361225] [0:0.64887201169063979] [0:0.33021696883091411] [0:0.70558450625677216] [0:0.39283684589110535] [0:0.39476968895604758] [0:0.13908431746653735] [0:0.35384223934225145] [0:0.47878417140976876] [0:0.20575782375555413] [0:0.16588785264514649] [0:0.25310964553193688] [0:0.26111748918762928] [0:0.31304914875392376] [0:0.2703430089813183] [0:0.29388681824806284] [0:0.75935696591296742] [0:0.33714078894342459] [0:0.54960704542402228] [0:0.26907073273597149] [0:0.24270841941960888] [0:0.63583573485490574] [0:0.36356477894930522] [0:0.61616255756880711] [0:0.17265508785335432] [0:0.78035506130229992] [0:0.45265658569732259] [0:0.66492496766944176] [0:0.54741310135014321] [0:0.19758766454140755] [0:0.5044111974149198] [0:0.32183982299134517] [0:0.61089989998314587] [0:0.79119913960123822] [0:0.55610964896238702] [0:0.3187576217329865] [0:0.57757013935082435] [0:0.82558091558197666] [0:0.85091286083535311] [0:0.41617776371886633] [0:0.72925283775354355] [0:0.22661894039875874] [0:0.29256446907544542] [0:0.24474446996511701] [0:0.41944563270343804] [0:0.24834215698679626] [0:0.28886010728192985] [0:0.20946614007334685] [0:0.26679002692571652] [0:0.44179577432804323] [0:0.5887248358933701] [0:0.49503265055370499] [0:0.60058075516975606] [0:0.32873742275414486] [0:0.39663476449579632] [0:0.36759392384148737] [0:0.43420055717486089] [0:0.21495159311844489] [0:0.55651817583593677] [0:0.60461704933097293] [0:0.85172836308088429] [0:0.61028026932376067] [0:0.34770034944116907] [0:0.25912451004247944] [0:0.751645127513623] [0:0.44548809675539108] [0:0.45193422062821814] [0:0.59028973168166365] [0:0.70285045956259073] [0:0.44417134629062149] [0:0.4007449429471423] [0:0.34559233166039166] [0:0.51334620348920257] [0:0.47852252657535865] [0:0.31893875962966073] [0:0.78053076023300805] [0:0.27668269663685535] [0:0.43913539982688721] [0:0.17567053654320322] [0:0.58698591901411079] [0:0.29196922239980616] [0:0.32461702642351686] [0:0.17918676392284738] [0:0.2546669948257026] [0:0.3924860738037097] [0:0.39070630232648224] [0:0.49357221593093714] [0:0.21010170682065132] [0:0.27261463369885897] [0:0.30942555629867641] [0:0.1977028879505669] [0:0.35544596916565785] [0:0.73847386390841685] [0:0.43699481311840366] [0:0.2355291178434725] [0:0.47780253057622346] [0:0.2893515113491229] [0:0.26727988279833392] [0:0.57777215947544613] [0:0.47961643204488286] [0:0.394065335538345] [0:0.50260635141380439] [0:0.40519778994063937] [0:0.36586573508315307] [0:0.31240716914947542] [0:0.33028206921435838] [0:0.48962890828854683] [0:0.62447781325032092] [0:0.5432500898620598] [0:0.53587348345696573] [0:0.23690707859715032] [0:0.2831437180629352] [0:0.41970263798069096] [0:0.57167681911127144] [0:0.71185749964494227] [0:0.60359499316759602] [0:0.52664057640155248] [0:0.39142898557338751] [0:0.22963503100578786] [0:0.48758314741890707] [0:0.62564698937495911] [0:0.67053010123623968] [0:0.34575473433227394] [0:0.19068534169120893] [0:0.22988349306495356] [0:0.61463515887136944] [0:0.51211961969512665] [0:0.59277742077572115] [0:0.30806885422802122] [0:0.47491315531237904] [0:0.7926045855141709] [0:0.41601598903257686] [0:1] [0:0.51919732377704841] [0:0.34148171341693856] [0:0.36692457510222148] [0:0.36857287008581141] [0:0.66990620382869803] [0:0.40045549247466128] [0:0.57283214008294614] [0:0.31940425263553535] [0:0.23053760275372095] [0:0.31512509512324405] [0:0.36878286878548028] [0:0.73075775947701316] [0:0.65531007084935855] [0:0.29995566910555843] [0:0.85122143088334967] [0:0.40490837111393779] [0:0.34809171971955061] [0:0.41209680815089944] [0:0.28907462059146061] [0:0.52021278475696209] [0:0.60742008412856519] [0:0.50056323537941716] [0:0.38088913132420515] [0:0.75644747411004176] [0:0.43365367070058053] [0:0.44164658077614449] [0:0.59912400290967305] [0:0.31951646153591212] [0:0.46220294286135039] [0:0.44301135002651082] [0:0.56217826214414324] [0:0.29948915019651734] [0:0.43853778689622919] [0:0.44112864684136721] [0:0.28165944057564163] [0:0.45896919069560116] [0:0.42368323637892857] [0:0.80283050205883411] [0:0.1747905548259929] [0:0.54380378363262571] [0:0.52093134735047808] [0:0.18462549021153449] [0:0.43821928984280684] [0:0.51804013487125378] [0:0.32488562653239872] [0:0.23700892232966905] [0:0.26139443156349862] [0:0.43765876562095474] [0:0.25100416011842552] [0:0.27903910438132906] [0:0.30116061925542653] [0:0.21362778425680781] [0:0.53438962093148856] [0:0.13478029237342609] [0:0.42573738255511567] [0:0.32554818503357325] [0:0.27934512542418122] [0:0.20328086342094542] [0:0.32924253962765021] [0:0.23766121106469534] none [0:0.17582101084964616] [0:0.26443259433731342] [0:0.2025728161834375] [0:0.66438765097651387] [0:0.50521256455373309] [0:0.26662270615575212] [0:0.57295638217896661] [0:0.67742344646204811] [0:0.26182751859609232] [0:0.49955783490793038] [0:0.2917328816463543] [0:0.28651194575209032] [0:0.37575550291657828] [0:0.18693280099083187] [0:0.29795304630740144] [0:0.2782367980705478] [0:0.62732202162645201] [0:0.33847464282222495] [0:0.28820644303024889] [0:0.7785972411410087] none [0:0.88618466211308833] [0:0.44663362884597324] [0:0.35665077174645199] [0:0.36600930655200076] [0:0.48037181137467966] [0:0.37204707106053125] [0:0.48705407444184567] [0:0.36975900488377722] [0:0.6063109346120017] [0:0.22335795952743462] [0:0.57547966428043584] [0:0.3547969944607765] [0:0.25437333494993769] [0:0.21030045323811553] [0:0.72060968078053811] [0:0.43288730097770894] [0:0.90616253522875234] [0:0.24470686449102921] [0:0.39538276081013279] [0:0.25391119376819593] [0:0.16925894433658931] [0:0.24299279542754609] [0:0.20613359114779664] [0:0.5044264247135376] [0:0.27712804600449842] [0:0.49137432544538295] [0:0.31095243091196045] [0:0.41033352891966579] [0:0.4228837489686596] [0:0.12452569168149349] [0:0.22226113634223432] [0:0.24418312721095989] [0:0.22634372301919423] [0:0.37216548194856286] [0:0.36926937885414068] [0:0.34509425373250985] [0:0.89347048951790886] [0:0.36967995100994433] [0:0.49254657052549788] [0:0.44045709351715384] [0:0.32538978847065514] [0:0.50846805864675526] [0:0.26190340271666418] [0:0.30991504298830214] [0:0.6128453023489896] [0:0.7270087023051609] [0:0.51687801802433675] [0:0.3199552589110311] [0:0.59169176106425447] [0:0.79281746145102161] [0:0.84348291659820196] [0:0.41130641134469831] [0:0.40943189288881199] [0:0.7330132224063719] [0:0.69487688703925476] [0:0.26144049869304892] [0:0.31013039214609489] [0:0.56054418593916944] [0:0.43550727519318772] [0:0.38835820405729082] [0:0.5521129436307054] [0:0.30098366902997975] [0:0.63133158256713084] [0:0.48248519352356306] [0:0.95414937842509828] [0:0.49946406505621976] [0:0.45167358781445494] [0:0.41460881836159508] [0:0.52158714704001696] [0:0.635051149010738] [0:0.42702536034199251] [0:0.30327306122572012] [0:0.35916130208261854] [0:0.35562943394493629] [0:0.23246162443885571] [0:0.21304213979323988] [0:0.39306110246221926] [0:0.31819175721997461] [0:0.32047873404418092] [0:0.25897158784633845] [0:0.40239053913346862] [0:0.23092802301491477] [0:0.23945164652161244] [0:0.2424246022006129] [0:0.48594698606298437] [0:0.33245718032345939] [0:0.48324729118647458] [0:0.3288140169513778] [0:0.76068273178545653] [0:0.286501231267283] [0:0.26010462377093652] [0:0.72718372801376796] [0:0.27319706232219282] [0:0.41528147716805308] [0:0.27413781004492066] [0:0.69378006316969232] [0:0.79856700492666499] [0:0.31229296594316319] [0:0.55640850846709322] [0:0.30418882516654394] [0:0.58589397377091945] [0:0.29605274245332908] [0:0.25311590939720219] [0:0.17123554781549932] [0:0.264893881068478] [0:0.26416045531431653] [0:0.30459086258606122] [0:0.55581087446721289] [0:0.73547732318635817] [0:0.19662669045979461] [0:0.36276363500681796] [0:0.24242209419416341] [0:0.25881917282793665] [0:0.21967625163270005] [0:0.36168556574703303] [0:0.32277346306876498] [0:0.34459085504043574] [0:0.18683835143093572] [0:0.53241806522309409] [0:0.33659975652914115] [0:0.38787410511993309] [0:0.23195705240579315] [0:0.31412228740213821] [0:0.29653665957131453] [0:0.56711256923747266] [0:0.86208279303818436] [0:0.7657280437102314] [0:0.46935199717266185] [0:0.39954756606115044] [0:0.1910530529546863] [0:0.55826976910140313] [0:0.68477715540380191] [0:0.30146383902072449] [0:0.29942314915702156] [0:0.35980930243377418] [0:0.66627433832661609] [0:0.43960746112134608] [0:0.22818815069308673] [0:0.40133727976534855] [0:0.43978957477493452] [0:0.38556485651038319] [0:0.27818309233360039] [0:0.28768565127836682] [0:0.16516963481171368] [0:0.68405016680308517] [0:0.78550675591374863] [0:0.42827023895488586] [0:0.42759683595748271] [0:0.5018545478315759] [0:0.40536493256036754] [0:0.56757869821170226] [0:0.60680609486212145] [0:0.22197192137440716] [0:0.473676313813366] [0:0.40422940737509194] [0:0.211906604720869] [0:0.3487456027013211] [0:0.384248160975109] [0:0.47706388805937366] [0:0.58614099122885266] [0:0.20521852719556008] [0:0.332486356573228] [0:0.38964113704510001] [0:0.24068979640144625] [0:0.27023047096189762] [0:0.33542666857339654] [0:0.12984855150353528] [0:0.685138822777142] [0:0.47449832121204594] [0:0.42880024207668582] [0:0.41293651952946536] [0:0.50902905023566758] [0:0.54773208821545061] [0:0.23722367613465517] [0:0.70212002177931165] [0:0.8988310779352906] [0:0.4858987590987538] [0:0.38999307800758998] [0:0.58580129104770695] [0:0.54854881357924368] [0:0.17131871410553637] [0:0.36572627986866024] [0:0.35203379773290633] [0:0.25969403881787184] [0:0.33007798062940674] [0:0.39668402483845433] [0:0.34261720955501729] [0:0.47417134970773073] [0:0.63193437923341089] [0:0.2714322119644304] [0:0.83356691030120034] [0:0.3763144684578193] [0:0.76760709531314975] [0:0.44057739992848638] [0:0.25425118705162186] [0:0.5736535430373334] [0:0.2616640073426294] [0:0.24309235013676278] [0:0.38100724985504003] [0:0.32631737185639625] [0:0.25926258188720558] [0:0.23996039987438822] [0:0.38587574340863046] [0:0.38680372432067645] [0:0.47778373069253882] [0:0.68736263256346353] [0:0.3869535428754079] [0:0.40106036980876236] [0:0.32025277436114696] [0:0.24481491739171071] [0:0.32979876475121961] [0:0.2584772479486136] [0:0.20611624966423836] [0:0.32459024366464051] [0:0.49224007338120396] [0:0.52779969011616756] [0:0.46587709598557042] [0:0.49257630995071688] [0:0.21854512914223223] [0:0.20816222751736796] [0:0.37932743528561153] [0:0.25017467331454446] [0:0.34235955693694498] [0:0.19496593699445011] [0:0.82269664526410347] [0:0.38953520316324969] [0:0.27451566129386373] [0:0.20063698072977312] [0:0.35126235296060387] [0:0.31474366768036033] [0:0.22340006938567894] [0:0.41142759668195089] [0:0.40250381669552243] [0:0.33972252476382853] [0:0.29404963587598443] [0:0.29511107767405215] [0:0.31088634999861231] [0:0.21105329057537545] [0:0.34573367219589357] [0:0.18026530902571292] [0:0.49928910183435987] [0:0.16901861144928118] [0:0.52532642852827749] [0:0.20574482637007274] [0:0.30997765954767842] [0:0.17143886328147964] [0:0.39581952823932381] [0:0.42665368086670308] [0:0.40555423852885375] [0:0.21937406784492874] [0:0.22574890183954377] [0:0.29949896520767832] [0:0.21595752984397559] [0:0.21000868657083979] [0:0.33226616063313336] [0:0.16310641247570798] [0:0.5555957916436719] [0:0.51036506579492635] [0:0.26108798262523769] [0:0.57354400191855714] [0:0.19017218886709444] [0:0.20700511844044878] [0:0.24198289293070477] [0:0.42027585115571608] [0:0.29214574174142155] [0:0.17911183513140497] [0:0.33529028483567336] [0:0.29631737817782056] [0:0.58575848416352372] [0:0.7666324183920219] [0:0.44834725549759447] [0:0.27022856074445423] [0:0.36740739614172679] [0:0.35957921775509277] [0:0.31944417393577679] [0:0.27261293492453453] [0:0.35971263546609183] [0:0.39858775889113829] [0:0.26850712667201559] [0:0.49619368653885815] [0:0.55092600245419088] [0:0.36458347034423499] [0:0.43497796948168627] [0:0.6807888636963384] [0:0.30461257073917197] [0:0.44372846553383771] [0:0.1498851620716318] [0:0.22047178211790103] [0:0.51626459663153024] [0:0.51636022625965594] [0:0.49066342262803614] [0:0.38775421550400213] [0:0.30753038678588035] [0:0.18830397141714889] [0:0.23173329024895892] [0:0.27773087510893274] [0:0.22533130435761803] [0:0.20491290643882712] [0:0.37351728270722756] [0:0.31696067828692986] [0:0.73389896652834286] [0:0.31919480872522671] [0:0.25883007010237974] [0:0.34242485488229146] [0:0.40618029779311393] [0:0.42176540135004742] [0:0.30956224582734154] [0:0.29618052651895277] [0:0.40340015691951364] [0:0.36186074164808774] [0:0.51307192369710553] [0:0.479600502515449] [0:0.49654617793179401] [0:0.4494561971236935] [0:0.34215026359798922] [0:0.47427571965943988] [0:0.29842522340033228] [0:0.47833817417876529] [0:0.50651879076018103] [0:0.28953694505479549] [0:0.30202311596649722] [0:0.47734399250301784] [0:0.32746266020938308] [0:0.46795360656377866] [0:0.32662112760960527] [0:0.24992775372915901] [0:0.88655009341147928] [0:0.24075231526971247] [0:0.24019513243383286] [0:0.22681412048794841] [0:0.51196856064966023] [0:0.45149315695076625] [0:0.14870191364409238] [0:0.37009735997371651] [0:0.3097674225236538] [0:0.2668664938404911] [0:1] [0:0.26592838827941234] [0:0.59430400594712218] [0:0.38793050052965483] [0:0.44149486664221088] [0:0.54730837673389487] [0:0.16496558548793414] [0:0.38609505527521421] [0:0.18849042114138542] [0:0.31931275090863659] [0:0.43704709670406644] [0:0.19068203104034046] [0:0.49114534757647044] [0:0.31992033955500915] [0:0.2518180348204368] [0:0.45972307381059174] [0:0.43448542524587247] [0:0.30631472994312919] [0:0.27254632621157959] [0:0.2199072237078071] [0:0.70460227893428995] [0:0.57832843371117615] [0:0.3696235687221851] [0:0.35839167188798238] [0:0.66205874505313123] [0:0.53260670386237918] [0:0.48392123520949881] [0:0.23613187136363747] [0:0.55754536644407415] [0:0.2741156396856449] [0:0.37969573603363638] [0:0.34983296216078308] [0:0.41733671345649709] [0:0.54503774214494194] [0:0.46859059376369039] [0:0.30340183275095217] [0:0.33842901390351454] [0:0.31902654858511115] [0:0.26349427138382658] [0:0.29984181184494185] [0:0.35350481879098578] [0:0.27973123767301283] [0:0.52244801225663284] [0:0.37010499264643426] [0:0.28456899483865244] none [0:0.49568529460669536] [0:0.58865026048972335] [0:0.35951202252766457] [0:0.85129340807079457] [0:0.22821962376029317] [0:0.5405622257289362] [0:0.37530869863852617] [0:0.38123182568870129] [0:0.3162778319664149] [0:0.61294264814448218] [0:0.38403475245897911] [0:0.34140293800008908] [0:0.45602531660582252] [0:0.28782657105717696] [0:0.34850473588389919] [0:0.51996538686005367] [0:0.3507442223965303] [0:0.42699362264281537] [0:0.32061201120146809] [0:0.55467651570225318] [0:0.31455051613998913] [0:0.23391729087956112] [0:0.30516285225314776] [0:0.27571786301107187] [0:0.64543120315790714] [0:0.28557949924878312] [0:0.60907990593145234] [0:0.22618312685702974] [0:0.48012776076448277] [0:0.42634543029994088] [0:0.2642546683756834] [0:0.36659397639583119] [0:0.71568011231746509] [0:0.52267726072511955] [0:0.55050996119926821] [0:0.29015525650616419] [0:0.3258286772574836] [0:0.36350274044669179] [0:0.44216878463947257] [0:0.35970899337592127] [0:0.31998995049556378] [0:0.19979820423761319] [0:0.31699066392985464] [0:0.32998737810856654] [0:0.3936268578733898] [0:0.56714342984266664] [0:0.90174358309764724] [0:0.6752610746915555] [0:0.42284987980928451] [0:0.70217801869929564] [0:0.36318059786576629] [0:0.26012737263716035] [0:0.31124325634726036] [0:0.18972603380617772] [0:0.63562098807427347] [0:0.17820656649482633] [0:0.7298713553105759] [0:0.84614190266864653] [0:0.23521155499128213] [0:0.34896658247239837] [0:0.44349875163299574] [0:0.22617291840619094] [0:0.21234234853076933] [0:0.34604560943549911] [0:0.57975622278536221] [0:0.49705059182127026] [0:0.5028320750882822] [0:0.35968988478117592] [0:0.25130328736158508] [0:0.55100945261495415] [0:0.41504568534322311] [0:0.26551985793210259] [0:0.71907663770649666] [0:0.81852937712745177] [0:0.60730572228992774] [0:0.89328608913981755] [0:0.29236806752137895] [0:0.45796359970521766] [0:0.53374744595904766] [0:0.38245235425884616] [0:0.2115247281199894] [0:0.5467070386733236] [0:0.29333950181794533] [0:0.27611607401587773] [0:0.59121224779202797] [0:0.27310197272526976] [0:0.38080456279648262] [0:0.32646430495000278] [0:0.32491920548473868] [0:0.70800195252048403] [0:0.5256676353862848] [0:0.30970167417802613] [0:0.95419957422051371] [0:0.33333770892775649] [0:0.24860241838606537] [0:0.35567201163852424] [0:0.31676343424430226] [0:0.50979418592355552] [0:0.53793810283262133] [0:0.35206768761318924] [0:0.48225247012592376] [0:0.20583372865984881] [0:0.16284187484554194] [0:0.33961870647956943] [0:0.38555713978558187] [0:0.4355666381754002] [0:0.32876268018771687] [0:0.37923866131858619] [0:0.76649857372321883] none [0:0.32062121307775404] [0:0.26740032595563989] [0:0.50709807419657071] [0:0.36494280040987115] [0:0.26745967113259989] [0:0.34368292834994563] [0:0.41034613085874494] [0:0.53584634180215296] [0:0.45744736944319148] [0:0.55050429677003965] none [0:0.27010066220237089] [0:0.33437844860430604] [0:0.24902190898402266] [0:0.50586989257261294] [0:0.40404547992532008] [0:0.28280597283714753] [0:0.54966307583257623] [0:0.38137269082648045] [0:0.86195273025272612] [0:0.50427860096976596] [0:0.39213814502909089] [0:0.28379741288504934] [0:0.2952346651725693] [0:0.23593174328816532] [0:0.37464333997666271] [0:0.21546241493151569] [0:0.34706378483313338] [0:0.31282494212524242] [0:0.39052117539884446] [0:0.44351975568937446] [0:0.47397246095300538] [0:0.25300535881782826] [0:0.38272566387350171] [0:0.45025469307635801] [0:0.36873797314841023] [0:0.36896017500999861] [0:0.41555158343724974] [0:0.48251653981936971] [0:0.8607365792531888] [0:0.75693994235189732] [0:0.19782321620840213] [0:0.44621209487161173] [0:0.804553850093366] [0:0.29436786730045678] [0:0.39569104247582992] [0:0.19289256510534961] [0:0.29740036154502597] [0:0.54250190811790389] [0:0.41496724060846429] [0:0.28825195071953919] [0:0.50631964655922579] [0:0.49174814274135137] [0:0.30175417529984344] [0:0.21255084283685383] [0:0.33613057251144324] [0:0.58613698517870028] [0:0.32241323578466408] [0:0.67959936220126105] [0:0.45614115570684483] [0:0.22510273522226473] [0:0.2061003771275883] [0:0.60518283176916243] [0:0.30532677738429614] [0:0.26043767840346255] [0:0.27045845555781639] [0:0.12936717382428548] [0:0.35322285039358814] [0:0.29305372858503442] [0:0.28240939213498861] [0:0.26965530002210364] [0:0.27429210281492661] [0:0.52829063450492053] [0:0.34557910317222507] [0:0.31351471869300007] [0:0.25046247030081376] [0:0.31794047873875925] [0:0.27514457639368073] [0:0.28669159550350953] [0:0.46532444903626735] [0:0.50988399301613574] [0:0.21723273695693018] [0:0.56959271158584179] [0:0.27308232133855376] [0:0.3182868039102163] [0:0.33118411703710027] [0:0.20616261362885166] [0:0.40749580750857289] [0:0.270516592828976] [0:0.63635089059394012] [0:0.15510624109024843] [0:0.25474965805035132] [0:0.19894190225426328] [0:0.32248996628265231] [0:0.41121189648619894] [0:0.36215893586105219] [0:0.26868237136163092] [0:0.26246109611561386] [0:0.17457385179727378] [0:0.33854208580935369] [0:0.38044629031283961] [0:0.78353722578807827] [0:0.22931394250911663] [0:0.43557805513533332] [0:0.48340651847951466] [0:0.40266889753404622] [0:0.38279691559750967] [0:0.39545898542067348] [0:0.19332491712753042] [0:0.24932890384687376] [0:0.41449879283874835] [0:0.52508767869152084] [0:0.74011886063674348] [0:0.6030444229153723] [0:0.52321447780527763] [0:0.6545540334246287] [0:0.45309147691831092] [0:0.58481442831145547] [0:0.52244237584928943] [0:0.58121367899878973] [0:0.75382331734002184] [0:0.50041798547340843] [0:0.37802872142805677] [0:0.72206116347630822] [0:0.85791148048458676] [0:0.54086989749610104] none [0:0.50930558636285939] [0:0.60366936160288254] [0:0.59716359339127822] [0:0.35905700229808668] [0:0.37243698215168797] [0:0.40714358990136118] [0:0.606023193991722] [0:0.85406701730167989] [0:0.52363388702218061] [0:0.7422045530130541] [0:0.74250081073894059] [0:0.69988504718095979] [0:0.25454987898754378] [0:0.17722112449350333] [0:0.23657860665766067] [0:0.34854683553154719] [0:0.24795323633053915] [0:0.35226777739422721] [0:0.83580643990114711] [0:0.70322126035189336] [0:0.56572471705476512] [0:0.86451666967239793] [0:0.71306068025673452] [0:0.53768440251591165] [0:0.25137017455091287] [0:0.2552675344605127] [0:0.38737617756747517] [0:0.59906170222956501] [0:0.478953889129558] [0:0.68411567291582498] [0:0.37675330763273784] [0:0.68835744568830504] [0:0.38035739001418567] [0:0.72018693680756085] [0:0.61666107932593428] [0:0.70691174374710375] [0:0.7984158256308812] [0:0.66344442556986039] [0:0.60382206258703608] [0:0.64244885391317674] [0:0.70816176641712247] [0:0.29303405507781483] [0:0.57233650505950695] [0:0.6704335123707359] [0:0.78676179501616461] [0:0.79558957464629387] [0:0.34160491210168931] [0:0.26230450359940388] [0:0.79723483908324022] [0:0.27641993251891628] [0:0.72349707761911386] [0:0.69377342415834553] [0:0.38326499239198303] [0:0.82861043774924448] [0:0.37668442750320313] [0:0.25632336084615243] [0:0.26814645583802943] [0:0.29656028857418887] [0:0.76611281682289556] [0:0.86633717299890611] [0:0.31285650050347075] [0:0.5883581143311456] [0:0.32243614136027804] [0:0.51923313059988907] [0:0.32095574101056801] [0:0.28578274152389155] [0:0.37459846158693072] [0:0.37599388629540115] [0:0.28910260033741103] [0:0.28364072399264401] [0:0.41478848496353388] [0:0.71580718216135009] [0:0.64359306401458238] [0:0.65265908995053945] [0:0.85501166416031238] [0:0.76115708336056709] [0:0.72921355568988799] [0:0.27512009060879694] [0:0.27575626944110915] [0:0.40921653296448757] [0:0.44078223243579878] [0:0.57091992282687543] [0:0.69372734816192883] [0:0.81051731280890582] [0:0.46235807127141776] [0:0.30884140951412647] [0:0.22071029832540978] [0:0.87169626182547] [0:0.30029561085188983] [0:0.46485945561725794] [0:0.26659751493460609] [0:0.35214427442793494] [0:0.60231886066774498] [0:0.13331721032570185] [0:0.81989524015798121] [0:0.81178849001425657] [0:0.28188545760517764] [0:0.17901899930936269] [0:0.62422455365213569] [0:0.74282764908097487] [0:0.38260183150450533] [0:0.7420559245050945] [0:0.31362688025676994] [0:0.40185598982933923] [0:0.23564155687859417] [0:0.21921971330924739] [0:0.26113316561041761] [0:0.27981157223398406] [0:0.19335152508187292] [0:0.3883983742985832] [0:0.40387120802437004] [0:0.280897348073746] [0:0.23011180998786498] [0:0.28214296295171293] [0:0.35240181246889218] [0:0.17394208956646012] [0:0.43751531059965471] [0:0.32168234334880164] none [0:0.73898598661085046] [0:0.28666337303048151] [0:0.20582509688505074] [0:0.43911146927098454] [0:0.26161358877549667] [0:0.29079956714676547] [0:0.30998300692149028] [0:0.18549542593962115] [0:0.67635365351330945] [0:0.3375752358078748] [0:0.35097907943067824] [0:0.29345225212224585] [0:0.42304574755683899] [0:0.26926874062282324] [0:0.36853808547645911] [0:0.54681914121834907] [0:0.22695676313891663] [0:0.24646081558518798] [0:0.75830752855283534] [0:0.3020726751674162] [0:0.29062082299035324] [0:0.59507002793789598] [0:0.23528927403687841] [0:0.63605216506529882] [0:0.55223214803175547] [0:0.28539017731132543] [0:0.19935591926394272] [0:0.37951049095023459] [0:0.50777516785305088] [0:0.20010101131849212] [0:0.41543038353253975] [0:0.3433478929938717] [0:0.30822541596505809] [0:0.71863736307608861] [0:0.94840886400538271] [0:0.50238077061701203] [0:0.24370565705159211] [0:0.28265429727048591] [0:0.21648552519406503] [0:0.38526439733075912] [0:0.31617437744186999] [0:0.39036435991770779] [0:0.43739074264928157] [0:0.86444815309263145] [0:0.31427336481146645] [0:0.32840114649093305] [0:0.27082087695080198] [0:0.19105640858065312] [0:0.30062867578861069] [0:0.27290999410387728] [0:0.24787149187155916] [0:0.6796592929505022] [0:0.80559422078886445] [0:0.46150951755572905] [0:0.30792460058547189] [0:0.22196744000105362] [0:0.24844958306714918] [0:0.41875316077123104] [0:0.28838801650537221] [0:0.68648023133161207] [0:0.27355038973002122] [0:0.65405695128055974] [0:0.26909207237805194] [0:0.34072446194010753] [0:0.5313758127842072] [0:0.43252298460765087] [0:0.34693865621059] [0:0.23957746694702528] [0:0.37933457210361515] [0:0.25897097884315218] [0:0.75552633385575885] [0:0.28260025991578058] [0:0.28518087943676174] [0:0.38810252055773498] [0:0.29702973415420159] [0:0.65165149223438468] [0:0.40029863587436582] none [0:0.26601663446895046] [0:0.53651144240642956] [0:0.7942241838706483] [0:0.39826791596899419] [0:0.27796584053321416] [0:0.70369487628453176] [0:0.52722935943143179] [0:0.32536332163439924] [0:0.27537409679173741] [0:0.6905817319924541] [0:0.46040185067690609] [0:0.45128572734733424] [0:0.48610584478192276] [0:0.23723392938112753] [0:0.23495660987781597] [0:0.45823984713319521] [0:0.37568463703367799] [0:0.2370885661110502] [0:0.75698209725729426] [0:0.32818408714034442] [0:0.55130662679241937] [0:0.46455635727196548] [0:0.26182821939898548] [0:0.38846443026015337] [0:0.82023975721763942] [0:0.39634713684514838] [0:0.33369592648771651] [0:0.1771460153871755] [0:0.23312339578085778] [0:0.65989089093166298] [0:0.35162945144434499] [0:0.25141825988178512] [0:0.27889530290516279] [0:0.67009076566842984] [0:0.7536372556827623] [0:0.35884666088429346] [0:0.26176671877681068] [0:0.40620169529751282] [0:0.52848386557193727] [0:0.1998397213727012] [0:0.21064345860352371] [0:0.57183511994602476] [0:0.57911824624890063] [0:0.26600885970324117] [0:0.38858739841569745] [0:0.41930078779000513] [0:0.58932068094367029] [0:0.44267445491181967] [0:0.66791114319658551] [0:0.66191752638940615] [0:0.20992611837599939] [0:0.40362346414923594] [0:0.60543585114296605] [0:0.31918880027870378] [0:0.49729692647773238] [0:0.72648279116917258] [0:0.78177960309667227] [0:0.5337730562105979] [0:0.63821588540897733] [0:0.56987280902054749] [0:0.27922480715648273] [0:0.2209933627544792] [0:0.29832113050289927] [0:0.16658839335828426] [0:0.41585048817422016] [0:0.55116049244947518] [0:0.28358795309119572] [0:0.7431442139400064] [0:0.27338128462109074] [0:0.32550378537896829] [0:0.27661618447934644] [0:0.34162721700948223] [0:0.175908533734175] [0:0.40588462646435158] [0:0.33447476173917595] [0:0.46649108175396276] [0:1] [0:0.2663438468458349] [0:0.33116516892531733] [0:0.36774397330617353] [0:0.22085014457670793] [0:0.23098779071054343] [0:0.7291258868350553] [0:0.61073959302862113] [0:0.42481932790502436] [0:0.18569594141025167] [0:0.38145589704137067] [0:0.44679857308338022] [0:0.25207373289449853] [0:0.28396727699595714] [0:0.31810379938594696] [0:0.49228471177949601] [0:0.40351150257490226] [0:0.62959337785818614] [0:0.5274481772655043] [0:0.42269800962630655] [0:0.62945129897241925] [0:0.43181789620707578] [0:0.35972028041769361] [0:0.31380052560518529] [0:0.37058579088484489] [0:0.85922112597252587] [0:0.44545664889837777] [0:0.49994342723204616] [0:0.40937168404880397] [0:0.73559328040941252] [0:0.19629952353304916] [0:0.31005954720449252] [0:0.68424432670531066] [0:0.22704704448775087] [0:0.38304385436956151] none [0:0.8065443831032566] [0:0.60816507954462351] [0:0.40970665657288324] [0:0.43002700047193654] [0:0.82016287652402942] [0:0.28339512159849045] [0:0.51872364601528198] [0:0.26108857436468413] [0:0.25637098133086572] [0:0.4466260268449011] [0:0.38088405544054355] [0:0.26952802202041476] [0:0.27896806838019783] [0:0.31311403648863806] [0:0.36724500136892635] [0:0.74532431453785009] [0:0.53436698106949365] [0:0.50479545193884601] [0:0.28530368635808079] [0:0.42013635718585707] [0:0.59395412932618041] [0:0.30340412331020949] [0:0.67389792798668147] [0:0.36301040019864622] [0:0.77445592881692304] [0:0.5329234501981881] [0:0.42070202662368955] [0:0.61212538464646293] [0:0.24165079735690598] [0:0.42587366312365987] [0:0.3129341229935747] [0:0.36130478985404424] [0:0.34765370007099633] [0:0.29335305578822768] [0:0.4246276065530864] [0:0.30189734273146518] [0:0.61402403346719991] [0:0.32655441005036623] [0:0.26856264287150672] [0:0.36235791887373148] [0:0.28118691542256202] [0:0.48190792675418881] [0:0.45510401812361195] [0:0.54851635566464541] [0:0.43250502938515467] [0:0.28870077467708072] [0:0.2528029236625271] [0:0.23057534829384882] [0:0.14282791766980579] [0:0.34130745538980944] [0:0.81380280083903889] [0:0.19370992017336761] [0:0.29135035705680246] [0:0.3316981641807743] [0:0.86749266362389388] [0:0.28811338792499203] [0:0.43095334263966295] [0:0.30751697672263384] [0:0.32369865544424087] [0:0.35907348955690588] [0:0.58590638638564396] [0:0.40158069911947014] [0:0.37525573913166654] [0:0.23999434884900409] [0:0.27081137143233019] [0:0.46032812474695434] [0:0.26644337431647597] [0:0.7210349332185686] [0:0.38667637851143211] [0:0.37967993176481568] [0:0.28227436017383162] [0:0.33456937557437938] [0:0.31444308276491034] [0:0.82238442935595879] [0:0.44745042520710421] [0:0.55604861002751516] [0:0.27617388964332656] [0:0.25185440740949749] [0:0.32784610008535847] [0:0.25568616975927616] [0:0.53753262829096793] [0:0.26010052873550926] [0:0.2336314919289684] [0:0.60874242104968812] [0:0.43783332229361438] [0:0.18991914725476497] [0:0.30117330089318373] [0:0.73272448784316602] [0:0.31756587320929724] [0:0.44429822087731258] [0:0.29980862393018221] [0:0.51521173359761352] [0:0.53827421699435685] [0:0.46258826736727093] [0:0.68992732967071824] [0:0.44419226894077157] [0:0.42219329526259064] [0:0.22865329216023597] [0:0.30744713183212502] [0:0.28180866476022698] [0:0.5104756063510919] [0:0.25682073803717409] [0:0.49134724626233189] [0:0.40130118215494481] [0:0.83152783311332545] [0:0.29875839240118973] [0:0.35784615130640568] [0:0.23827787777238638] [0:0.72416208552726724] [0:0.37946617218312872] [0:0.2661075384412559] [0:0.64906730568315363] [0:0.45346118007080521] [0:0.61370416854071741] [0:0.30806997054224616] [0:0.24311128204595858] [0:0.1502773124482015] [0:0.32522324417725174] [0:0.33689821532996961] [0:0.3421582315343582] [0:0.29441074030957648] [0:0.36992235434050996] [0:0.33923626334564316] [0:0.23231842842445705] [0:0.20668836855883183] [0:0.62322683542128587] [0:0.712130969284828] [0:0.57538924385701939] [0:0.40852834799576532] [0:0.14216370163877276] [0:0.90049892939075715] [0:0.55293458160217968] [0:0.37444978363009696] [0:0.34572003456429351] [0:0.33978500991009103] [0:0.86359422665545016] [0:0.27998125324197431] [0:0.42315159284724974] [0:0.50215163180447997] [0:0.30619511178467346] [0:0.30650760467134081] [0:0.23556665248072547] [0:0.29714820331282249] [0:0.25248783360601645] [0:0.7175699502161984] [0:0.28858336193801559] [0:0.3629696255631038] [0:0.20515848480588625] [0:0.26055678898942902] [0:0.40891980977490172] [0:0.54392950566754372] [0:0.59220100399949172] [0:0.46318151598103346] [0:0.86438022062249986] [0:0.72344907398890113] [0:0.38988059925872315] [0:0.45745769291342558] [0:0.14994645805367862] [0:0.44035180075878461] [0:0.29636859764498863] [0:0.2161981029593221] [0:0.26084303909776502] [0:0.34206794095905652] [0:0.32426706724859494] [0:0.31533571979188701] [0:0.41104878751584228] [0:0.4997530526228407] [0:0.55708004368978981] [0:0.81249653171893366] [0:0.80098783581485922] [0:0.30971573524430113] [0:0.15669451827541708] [0:0.29900136949272094] [0:0.23821279651070085] [0:0.36992471246535386] [0:0.3239174925696322] [0:0.23530096715275226] [0:0.38854933382506934] [0:0.39670829911029198] [0:0.73634956634178961] [0:0.26445764097215924] [0:0.40824192539395437] [0:0.43892633249840735] [0:0.32029278114693571] [0:0.43751521370762636] [0:0.68263687049860988] [0:0.38958500909739346] [0:0.5237524701441364] [0:0.32696938215991567] [0:0.4579749330235604] [0:0.27764523699217297] [0:0.20334421729579494] [0:0.15305443670418234] [0:0.6319374655243063] [0:0.67419473364960958] [0:0.3261605261923764] [0:0.42066401916680518] [0:0.44417923187787323] [0:0.15748275447280394] [0:0.31502724524255316] [0:0.23598604788324354] [0:0.772798571054508] [0:0.19483359846915152] [0:0.36820683730990394] [0:0.29801676848602443] [0:0.33750202107564725] [0:0.18060120033565355] [0:0.44157950370524079] [0:0.55087780125274854] [0:0.25193033521230007] [0:0.38473062353528525] [0:0.15386985652981924] [0:0.36247395139185051] [0:0.62377184815845788] [0:0.19841672679391092] [0:0.8097534323980059] [0:0.33530801150315609] [0:0.42535843179551253] [0:0.38708726378882335] [0:0.46311822134066383] [0:0.2821140937645607] [0:0.15705210231741321] [0:0.17515629002566407] [0:0.20549946970558697] [0:0.66785383816363331] [0:0.35178219215079937] [0:0.67547646299697928] [0:0.29145909174116852] [0:0.32208369771767359] [0:0.30152645531472061] [0:0.16438224078863034] [0:0.43709331329026252] [0:0.28535130738016234] [0:0.65036934320754902] [0:0.50522557243278587] [0:0.3531483766391722] [0:0.4626339085741496] [0:0.56066021214776485] [0:0.27071844303256476] [0:0.42527264583353469] [0:0.37159569561757144] [0:0.42550299633333682] [0:0.28006788991109738] [0:0.23143610941355958] [0:0.34795065757563165] [0:0.35046721594163155] [0:0.28114313953263448] [0:0.69278204892150919] [0:0.34267741938270063] [0:0.21122740743472065] [0:0.46736554181227064] [0:0.27510251204265534] [0:0.27400025355361229] [0:0.3756165154244448] [0:0.23551413423171727] [0:0.39997127951152367] [0:0.25333438498046262] [0:0.62385450583442759] [0:0.21142450428556428] [0:0.34924621507076942] [0:0.51031342725231921] [0:0.23205037345837459] [0:0.3528680380377695] [0:0.22245059116136925] [0:0.2980744246989559] [0:0.30285068614120009] [0:0.27750418505567603] [0:0.22201977634410494] [0:0.34393588138448555] [0:0.26821268876924353] [0:0.17976067239595606] [0:0.35009029980020173] [0:0.3355190069338852] [0:0.24913332632184099] [0:0.17758036447597433] [0:0.25308938492432309] [0:0.22163479615326648] [0:0.30551018334872215] [0:0.51581532799691121] [0:0.35030768255491473] [0:0.28188387731319264] [0:0.52409903860092966] [0:0.16837441356765906] [0:0.28941447603330078] [0:0.45137647856479202] [0:0.55921154578130028] [0:0.57806622945574071] [0:0.36412172547200439] [0:0.36532816304199128] [0:0.3696099502201794] [0:0.37025302706981722] [0:0.15590699169421582] [0:0.48506610377123827] [0:0.30675286258447609] [0:0.15845882340738954] [0:0.22860591709697761] [0:0.58055914786394736] [0:0.34599418806524102] [0:0.6051475130468964] [0:0.42582699949440433] [0:0.33146719460284579] [0:0.37434397398438768] [0:0.36274961959561181] [0:0.22914509834926922] [0:0.15859133360281452] [0:0.29411548865457043] [0:0.48299684495596767] [0:0.23275969499136989] [0:0.35515510464855649] [0:0.28825195071953919] [0:0.24049614848763601] [0:0.21609106577154266] [0:0.23412960106860783] [0:0.43018516355494224] [0:0.28266476052633671] [0:0.42514015511041237] [0:0.38341701455109445] [0:0.24179868285414111] [0:0.22277312420527817] [0:0.29397069074394044] [0:0.27072230897985955] [0:0.22065145093862651] [0:0.3302046750234473] [0:0.28969952076958627] [0:0.30682673050866816] [0:0.29118345606721224] [0:0.40468008150935725] [0:0.60406408313191307] [0:0.53512094603188887] [0:0.44678570387535921] [0:0.2464652162040904] [0:0.20624785088216413] none none [0:0.2400737921868307] [0:0.38445786690165101] [0:0.25623429012395643] [0:0.4138293143480527] [0:0.24667046230936779] [0:0.38034584491415996] [0:0.30284071158480541] [0:0.5221041434296152] [0:0.21549318228583192] [0:0.19928618103734264] [0:0.20807385102033543] [0:0.36822765218254316] [0:0.60830285784756966] [0:0.34471827629235358] [0:0.22439906478591343] [0:0.20887132457733731] [0:0.38855449337694692] [0:0.18839809489316089] [0:0.2481275832632856] [0:0.25313749668803781] [0:0.22368247295783997] [0:0.19909510888167342] [0:0.24600243935550092] [0:0.44231724618438062] [0:0.34057973951531906] [0:0.60499727223174515] [0:0.24831144240139397] [0:0.17895767979181951] [0:0.21639566298423318] [0:0.12938216813524303] [0:0.21095152479530668] [0:0.21337382306471139] [0:0.18828016237079526] [0:0.20177257058296014] [0:0.19710973984354904] [0:0.35697720114846376] [0:0.39713203412996123] [0:0.28616322868357413] [0:0.31272861101494565] [0:0.3862618807205106] [0:0.47512165785631255] [0:0.28329797914614685] [0:0.41908887448713289] [0:0.53566508500198473] [0:0.47183765190435989] [0:0.33366662341797854] [0:0.22273901964241505] [0:0.18766709596855369] [0:0.61433852468901229] [0:0.29541531001710414] [0:0.3152664435521173] [0:0.34552699291642797] [0:0.67497723756463224] [0:0.48099980237836581] [0:0.77399835246387283] [0:0.29669583477439232] [0:0.49668979880139336] [0:0.69390337624258691] [0:0.46227695072464964] [0:0.46674214346434911] [0:0.23692629120755671] [0:0.34897832402376949] [0:0.68675310074857843] [0:0.83650239625738476] [0:0.76416036182780878] [0:0.80949659541228836] [0:0.86110456115316814] [0:0.62544689944589549] [0:0.33751886953854793] [0:0.32106693476090592] [0:0.54435662430340326] [0:0.39354853622878405] [0:0.36377013704974964] [0:0.38507637454389054] [0:0.44749295153695895] [0:0.46487852258271356] [0:0.52012260091672435] [0:0.67647174997146564] [0:0.41624435597781867] [0:0.63015505388495197] [0:0.69004395754426573] [0:0.62494506742648059] [0:0.26850768719694001] [0:0.45914380639402835] [0:0.40425399126114242] [0:0.52897363058752733] [0:0.31227027098853205] [0:0.71202504013504264] [0:0.75237509548728043] [0:0.39269272452977277] none [0:0.68149919512609303] [0:0.38196027049075437] [0:0.32656993733813067] [0:0.43831386567392283] [0:0.40011760294523041] [0:0.60328623557782068] [0:0.31989254917510934] [0:0.80119091893649652] [0:0.71684854212379068] [0:0.2284628788832444] [0:0.65845104325478754] [0:0.4897384218129231] [0:0.58555284293561205] [0:0.29915310376943927] [0:0.29113966015338677] [0:0.43098058138221323] [0:0.29957658451014652] [0:0.47031973276976047] [0:0.22028454993233593] [0:0.39214282363837533] [0:0.46331371508950953] [0:0.37463187126405939] [0:0.41932661791875525] [0:0.44657531937536821] [0:0.58173549882819553] [0:0.49852337020236281] [0:0.42318142715358442] [0:0.7294351548261151] [0:0.29372553763804982] [0:0.67735967510590656] [0:0.36617685623847857] [0:0.3240883663312632] [0:0.77931641487351011] [0:0.5991109424190163] [0:0.72312022078792204] [0:0.61456359626805268] [0:0.37614979131205706] [0:0.26104774995729746] [0:0.38545275093965053] [0:0.41785805248266505] [0:0.31091478998074856] [0:0.30244476966484346] [0:0.35625255326255378] [0:0.28706717888393213] [0:0.17000514165235123] [0:0.29692347254301049] [0:0.30571725900215369] [0:0.30420437444532156] [0:0.34764067448326597] [0:0.31112416252188752] [0:0.23111262445543321] [0:0.73206797976809102] [0:0.24784504843236457] [0:0.27975184158125432] [0:0.48252325167662202] [0:0.50684379610178798] [0:0.49700868906286738] [0:0.52760772162817859] [0:0.20597805276799763] [0:0.22080068126555727] [0:0.30390476850820286] [0:0.49495758725975669] [0:0.26950753557866092] [0:0.26221120926778818] [0:0.53807877470920773] [0:0.3333017294578543] [0:0.49860459179103356] [0:0.4130075243697226] [0:0.21829390774767021] [0:0.3522324736787476] [0:0.15504053893143402] [0:0.32897469641647231] [0:0.31080395558901502] [0:0.77548391043267983] [0:0.2124796015875885] [0:0.39638560359721547] [0:0.29827799032281443] [0:0.19633132339198109] [0:0.28953187878381692] [0:0.47650893708443653] [0:0.50176945328447098] [0:0.23526019875767909] [0:0.33694898910270421] [0:0.44945811795997681] [0:0.39967809853071101] [0:0.33058465964651629] [0:0.2592201965374295] [0:0.23935986261259137] [0:0.61805550181808933] [0:0.72648308588976973] [0:0.38716159621603757] [0:0.20409182820180649] [0:0.41346811698942054] [0:0.58745486852874362] [0:0.31648590211329269] [0:0.3582865891240003] [0:0.40372859155054136] [0:0.17922196865238219] [0:0.29413344090973353] [0:0.40658571212707378] [0:0.3084849577010233] [0:0.21829468626607723] [0:0.27005777337447423] [0:0.45401175867385807] [0:0.32485418847829556] [0:0.2635525955477403] [0:0.298426219832434] [0:0.58986862055244615] [0:0.30653510803821382] [0:0.2280138791403821] [0:0.28543287162693948] [0:0.33721112049622737] [0:0.1885496387113465] [0:0.74426083867068382] [0:0.36790961783960197] [0:0.25964069258450062] [0:0.78974839795633534] [0:0.26044005667056558] [0:0.50463899606121698] [0:0.63866477626361839] [0:0.29024222673743616] [0:0.28496635541798992] [0:0.37168787305113504] [0:0.37591273818626231] [0:0.29020915585308249] [0:0.39514717379734865] [0:0.33861658428797442] [0:0.60291213102147601] [0:0.24218682812322923] [0:0.24767561613877459] [0:0.25947065518996332] [0:0.28827241400343501] [0:0.56194183261039332] [0:0.89513876120316538] [0:0.29450897799785247] [0:0.29691130044736685] [0:0.71040471869173227] [0:0.35706071243223758] [0:0.74399569031205004] [0:0.48041692639492445] [0:0.83168030437873242] [0:0.49468356473487657] [0:0.27865838939835758] [0:0.30780831757747834] [0:0.69846210052674607] [0:0.33158106239938095] [0:0.48984398792594674] [0:0.24295832004356588] [0:0.32185393920610927] [0:0.27849760968822368] [0:0.35335916834571496] [0:0.33932168569286936] [0:0.5439820791329143] [0:0.37904661379853494] [0:0.36916236670858954] [0:0.29512705156363894] [0:0.70093050201603069] [0:0.40824689114613155] [0:0.21294722212328213] [0:0.20635104535657373] [0:0.43937414949437148] [0:0.28742791265571777] [0:0.38596099685359259] [0:0.2400305438723013] [0:0.54455109053197248] [0:0.47122999948267785] [0:0.56219699032909698] [0:0.21590360791471017] [0:0.24967891237428927] [0:0.67816532978636546] [0:0.2776766001344646] [0:0.14049668570134399] [0:0.17496554272973738] [0:0.19537417949778477] [0:0.47127285977418681] [0:0.58777966621411826] [0:0.31524487026745907] [0:0.2938617629864439] [0:0.22273645157906749] [0:0.30656556365586224] [0:0.42614893868109605] [0:0.33147746853698318] [0:0.3207213988891493] [0:0.17736065813748031] [0:0.27980066992160141] [0:0.3954432043176529] [0:0.28934866429051831] [0:0.18953930170863276] [0:0.32591766264968353] [0:0.28109322756317823] [0:0.32996347147506322] none [0:0.35415818511681563] [0:0.30997444591992812] [0:0.75513724160374873] [0:0.25144841484420355] [0:0.40388110683426492] [0:0.33993306694419834] [0:0.43163307999247363] [0:0.34973702556784358] [0:0.38327509421305572] [0:0.2858785637895942] [0:0.36301624677009531] [0:0.43973425408950984] [0:0.21201199613435534] [0:0.21833002831498388] [0:0.23947480707580063] [0:0.4108088271840073] [0:0.40687661513046808] [0:0.33522342867133526] [0:0.24784993197324753] [0:0.43190714559957172] [0:0.20854773486988976] [0:0.3020243366665239] [0:0.38046100176793823] [0:0.20154473975902909] [0:0.70240394254854788] [0:0.41972059496890157] [0:0.55471474195327675] [0:0.14222854398636992] [0:0.57967964623338708] [0:0.40368868578950323] [0:0.70947613324432846] [0:0.33489192920241434] [0:0.71096644846816159] [0:0.21687518523728216] [0:0.20399506628160594] [0:0.3431590498620713] [0:0.41533777229834418] [0:0.74158987817325384] [0:0.25689268104252588] [0:0.43253565485042988] [0:0.57403638264877099] [0:0.43578745736483732] [0:0.45697725371378223] [0:0.22967242729505236] [0:0.3083940873792303] [0:0.23429382589766654] [0:0.31031743470480772] [0:0.29884363243384621] [0:0.34067296116217677] [0:0.31594843148904789] [0:0.43917046682135102] [0:0.32275225202854602] [0:0.23627641538441496] [0:0.55166084861104125] [0:0.40290775669314921] [0:0.63587005223867965] [0:0.26940068606180034] [0:0.31233984879514648] [0:0.24651696530698169] [0:0.33782505094484228] [0:0.27067648379347536] [0:0.19473534469494441] [0:0.20512694716532748] [0:0.20114183877778999] [0:0.42676176639381425] [0:0.54937308845431365] [0:0.70026351316069435] [0:0.43776594596153251] [0:0.25382913674357083] [0:0.26854062163638903] [0:0.41225619740688496] [0:0.53929123002227242] [0:0.30434771992641507] [0:0.35920602561202469] [0:0.22374569495633512] [0:0.2441601124186733] [0:0.14523472463578743] [0:0.29034890210169406] [0:0.63154016137038482] [0:0.55034035362554024] [0:0.43121292512088405] [0:0.29426306866127666] [0:0.38363798947290306] [0:0.25431381983273837] [0:0.78835437125380547] [0:0.53127365437686425] [0:0.2595321634826494] [0:0.28680113502991916] [0:0.25301302697113853] [0:0.48477917412884569] [0:0.21084640561771428] [0:0.20427284276068278] [0:0.38102035905132059] [0:0.3541754040133151] [0:0.23459837321660698] [0:0.34651145091832286] [0:0.38689930147782881] [0:0.30919802907101346] [0:0.40327471677775928] none [0:0.4705051143902369] [0:0.51601862583744951] [0:0.62069863652014345] [0:0.45399794328602394] [0:0.28958330987218883] [0:0.27602167235133618] [0:0.40233560514277478] [0:0.70522049746239979] [0:0.33247348942158178] [0:0.25569101951043627] [0:0.30012993298736146] [0:0.29637937219851701] [0:0.34655361895591907] [0:0.48068056419635435] [0:0.20839780804116625] [0:0.22491754831554825] [0:0.3352281997131496] [0:0.44199219926113281] [0:0.42291512355397337] [0:0.6419567047872603] [0:0.30384650353407899] [0:0.37037499457946466] [0:0.38058328014967185] [0:0.23556345107836429] [0:0.44314024421339243] [0:0.81410814612422921] [0:0.38505855842123632] [0:0.55926432001899651] [0:0.33314831522827965] [0:0.2319027948485769] [0:0.26485763247381922] [0:0.26475564837689541] [0:0.45426546342730634] [0:0.80076914086568518] [0:0.82732146944080198] [0:0.37685287271146878] [0:0.26297071328791261] [0:0.22653419066975281] [0:0.2096527419969321] [0:0.68572122277512493] [0:0.26895560568774329] [0:0.25964310833028764] [0:0.31313084357782389] [0:0.22302295946055017] [0:0.67666848732448048] [0:0.28436428126546531] [0:0.3421204527211687] [0:0.21140852067167917] [0:0.66848545557351224] [0:0.70698227528046631] [0:0.30420012921969258] [0:0.47562521414336972] [0:0.46099439111985058] [0:0.16654313729664291] [0:0.42476259034058844] [0:0.83227276782214343] [0:0.38303280774931853] [0:0.37035974697907509] [0:0.69437497766344058] [0:0.3402551713668065] [0:0.59613496219189266] [0:0.22033814025196077] [0:0.56931124358877305] [0:0.33429127796051422] [0:0.30739843595898997] [0:0.36242643182322914] [0:0.40686741641817714] [0:0.29414328332399509] [0:0.57984172888622376] [0:0.18079177304366634] [0:0.33058785811759223] [0:0.32635031035235057] [0:0.37285857833080305] [0:0.34346818444041821] [0:0.26257525754810351] [0:0.34058321903995686] [0:0.26332768806751122] [0:0.50853602076590321] [0:0.17582953533048543] [0:0.54527481788871601] [0:0.46405678062406291] [0:0.45590278638047632] [0:0.63151450697396272] [0:0.55505564094594939] [0:0.39246890703788684] [0:0.30713163761137185] [0:0.32903860274928642] [0:0.44003046829335579] [0:0.54210102889237322] [0:0.66137443552237196] [0:0.21230473007011597] [0:0.58552577888795365] [0:0.27113220532416166] [0:0.88431614518615309] [0:0.60011473354780143] [0:0.49035247859683845] [0:0.51551124303332929] [0:0.339347349694955] [0:0.46717737763233186] [0:0.46344054593884526] [0:0.42360490275953938] [0:0.48000297934491931] [0:0.32138471130909002] [0:0.40699162322770643] [0:0.47466699218543268] [0:0.30491672273161841] [0:0.54287595151638801] [0:0.2167182393652228] [0:0.73323565626613796] [0:0.65408854097514812] [0:0.52507142911920457] [0:0.29344591694709443] [0:0.78692555293789124] [0:0.75080727512693224] [0:0.60003823977551429] [0:0.46865665285096214] [0:0.2112499803585198] [0:0.25643372913802287] [0:0.24367688412771427] [0:0.24046111393993888] [0:0.55050507729847165] [0:0.66852081303731548] [0:0.32870523576983512] [0:0.51234497088086084] [0:0.29771012335862035] [0:0.25122164994282281] [0:0.38768818831026297] [0:0.3943577907331508] [0:0.19701951631259829] [0:0.69007876708783333] [0:0.30067368269383182] [0:0.51617647401233024] [0:0.60596952776244928] [0:0.22324329016223429] [0:0.35852244468201389] [0:0.32239605833950391] [0:0.18008110185306811] [0:0.30691398666159259] [0:0.38629056830845321] [0:0.55986744037887481] [0:0.38725545374436793] [0:0.29653675271372631] [0:0.20473685284875984] [0:0.5678063188927156] none [0:0.958351759824704] [0:0.63253599864367949] [0:0.32235559969431687] [0:0.33480604007963488] [0:0.2633508469674527] [0:0.34053266804073579] [0:0.48001738145591766] [0:0.48708151860073168] [0:0.27569929283144728] [0:0.42613004922716868] [0:0.48671419026840074] [0:0.3083604825122801] [0:0.47618979840316178] [0:0.30366078252054851] [0:0.44557073407338621] [0:0.30843343687953251] [0:0.53282677797416489] [0:0.57162803052403854] [0:0.44103394820475739] [0:0.18284617389041793] [0:0.27807790044583097] [0:0.22734219199094924] [0:0.42329707478653583] [0:0.42429178511727528] [0:0.17591406547348526] [0:0.40903212316657994] [0:0.54881786745117622] [0:0.53671727943676517] [0:0.41025563876171772] [0:0.25446520292742586] [0:0.32435860901549007] [0:0.49766800210707629] [0:0.60050764829034819] [0:0.52144617838724916] [0:0.41743582634399334] [0:1] [0:0.21958829131641425] [0:0.24528799537667778] [0:0.52957664191612153] [0:0.36717084757652413] [0:0.29069463801961171] [0:0.47626781515299843] [0:0.27025982247469632] [0:0.49629884696293242] [0:0.29711962976289519] [0:0.50608086984279665] [0:0.25179854850106065] [0:0.30253623935275525] [0:0.33769682096702791] [0:0.29231734443341523] [0:0.54110462187817543] [0:0.27420192757164719] [0:0.48193541929661049] [0:0.86925748078747] [0:0.21444821101425263] [0:0.29098766965831785] [0:0.23975638917708036] [0:0.31079656888009743] [0:0.27441304672064409] [0:0.63100781224515845] [0:0.49134756585707873] [0:0.28650248586453742] [0:0.61379524347491188] [0:0.22112984324808729] [0:0.23386333861387254] [0:0.27724378750454509] [0:0.58233966474267185] [0:0.50706232783846983] [0:0.74801352326864401] [0:0.72859005141262367] [0:0.23615026113966206] [0:0.67208611346903224] [0:0.72177817082479501] [0:0.66427800485079069] [0:0.78108673158909969] [0:0.66200631022779111] [0:0.36505832668315885] [0:0.24480003487129937] [0:0.50081500145210911] [0:0.37632360810960924] [0:0.47762718023802936] [0:0.86628147276562151] [0:0.27923873482828798] [0:0.33715394139145655] [0:0.4665521335630668] [0:0.50535786233651681] [0:0.61226439159007628] [0:0.15280186173152718] [0:0.24428720264350492] [0:0.25974967377571562] [0:0.40317274399222502] [0:0.35923015583766815] [0:0.23850178419853255] [0:0.26433197570399397] [0:0.29207616805388764] [0:0.20943940481980344] [0:0.37371189631077545] [0:0.1703426503378285] [0:0.25920226770258137] [0:0.20227640849266068] [0:0.29062994813180376] [0:0.66147521538022469] [0:0.36797854672438018] [0:0.26973683961688455] [0:0.33146818626828872] [0:0.35075671829757643] [0:0.27131738654895415] [0:0.26069083754612804] [0:0.38542675681770433] [0:0.30226552677337309] [0:0.79131205640135616] [0:0.74769284209946041] [0:0.43779594508506842] [0:0.40983546876385046] [0:0.41675941093520752] [0:0.37731005660552736] [0:0.24458057425632307] [0:0.34787164335326826] [0:0.33378758009413279] [0:0.35664479787859937] [0:0.59882780065694508] none
tree_sizes=5499 5517 5515 5537 5556 5534 5533 5545 5541 5577 5560 5567 5593 5573 5584 5580 5579 5559 5604 5585 5555 5569 5565 5598 5542 5558 5598 5553 5598 5607 5578 5597 5574 5575 5556 5551 5557 5597 5588 5597 5571 5543 5570 5558 5574 5581 5574 5603 5595 5593 5566 5598 5593 5599 5576 5582 5575 5597 5565 5581 5588 5572 5573 5609 5580 5577 5603 5617 5603 5560 5586 5590 5577 5577 5564 5618 5563 5591 5590 5560 5607 5618 5597 5586 5594 5590 5611 5576 5599 5587 5627 5590 5589 5593 5562 5597 5623 5599 5597 5586

Tree=0
num_leaves=50
num_cat=0
split_feature=2103 1685 2326 1557 1557 1165 1976 1536 1204 341 1165 535 373 1642 624 2157 1009 2437 913 1009 327 1367 2353 207 1853 1769 1853 179 543 2344 8 545 1151 146 1535 1010 1205 1534 1668 2103 1592 527 1822 1383 1249 2171 2058 990 913
split_gain=429.737 117.681 112.163 100.317 78.7955 75.6029 64.3361 49.304 46.5963 45.5352 42.9955 32.6489 31.0106 26.2317 25.4228 26.0022 26.636 22.1511 22.1379 21.4666 18.7146 19.1579 18.1093 18.425 18.0494 17.2742 16.7445 15.6208 15.4541 14.4256 13.4193 12.9208 12.427 12.3733 12.2895 12.2888 12.1176 11.6948 11.2644 11.1737 11.0411 10.9685 14.1994 10.7013 11.3636 10.3135 10.0821 9.89264 10.5678
threshold=0.009251603695300193 0.029075308251279641 0.03169932608219423 1.0000000180025095e-35 0.0188146455849427 0.012883585865734203 0.095545955027934684 0.023706092281704123 0.072427999402031401 0.096084394062152662 0.024094059836910108 0.0046151106201239326 0.034210122447639831 1.0000000180025095e-35 1.0000000180025095e-35 1.0000000180025095e-35 0.068249792637710513 0.0062251824086054343 0.024903193454452906 0.038919972734164067 0.10882696423092932 0.13458343978929357 0.013114700883525359 0.012469733572865791 0.024057053067701322 0.069734159934172216 0.011205569997338538 0.0087958187738376662 0.072148092267814809 0.023042373327903317 0.026746341039637096 0.036223485087361645 0.036012760654492423 0.013303392363263793 0.029992608100878376 0.018285237381961528 0.081358489975830228 0.0078386484581157104 0.046856806227989524 0.13286206734514003 0.1034798580430053 0.034861678236996603 0.032379698257459448 0.020848031218501928 0.058927664001357606 0.074776770381144053 0.011818031850948098 0.011885585916224703 0.042445007695933921
decision_type=2 2 2 2 2 2 2 2 2 2 2 2 2 2 2 2 2 2 2 2 2 2 2 2 2 2 2 2 2 2 2 2 2 2 2 2 2 2 2 2 2 2 2 2 2 2 2 2 2
left_child=1 2 4 5 6 7 8 11 9 10 13 12 19 14 15 16 17 18 20 26 21 22 23 25 40 27 39 28 31 -28 41 33 35 36 -7 -19 43 -16 -10 -2 45 42 47 44 -1 -20 -26 48 -4
right_child=3 -3 30 -5 -6 34 -8 -9 38 -11 -12 -13 -14 -15 37 -17 -18 32 24 -21 -22 -23 -24 -25 46 -27 29 -29 -30 -31 -32 -33 -34 -35 -36 -37 -38 -39 -40 -41 -42 -43 -44 -45 -46 -47 -48 -49 -50
leaf_value=-0.46234238087637647 -0.35910060696047252 -0.19120466472041459 -0.24606615266014742 -0.556878157358492 -0.55131566375354768 -0.16089772849708087 -0.5255633785454723 -0.47810813297583254 -0.26444992212713458 -0.23971488562930435 -0.26295029015158916 -0.19532941235031387 -0.15849766298533838 -0.21377710253757987 -0.39074501502415565 -0.25481789856878945 -0.26502263704141454 -0.32096909524373435 -0.49504867072920827 -0.14154530152265102 -0.24043407672166078 -0.24043407672166078 -0.28431597071622133 -0.27504514804131419 -0.33437841316072009 -0.27998958680126468 -0.22213227355050078 -0.27369666474314586 -0.29908535028797001 -0.36518607004964232 -0.43227830060773975 -0.34921172944057155 -0.5173226472788881 -0.30406685380624099 -0.25195023788407711 -0.45915277951476474 -0.34921172944057155 -0.17766120203011546 -0.43227830060773975 -0.48567823921520503 -0.33932285192067058 -0.17018894675270899 -0.44505777309499639 -0.34291880738245273 -0.30767844385698739 -0.37069446336311501 -0.47381158619132385 -0.38585874613196924 -0.39435660507490206
leaf_weight=352.24759598076344 40.449484705924988 22.150908291339874 36.356382086873055 11.55699563026428 53.93264627456665 67.17503710091114 60.674227058887482 13.964703053236006 23.595532745122913 13.242390826344488 15.650098249316214 33.467133179306984 11.797766372561453 5.5377270728349677 4.8154148459434492 7.9454344958066931 8.9085174649953824 30.096342787146568 148.79631873965263 5.5377270728349677 5.0561855882406226 5.0561855882406226 7.7046637535095206 6.7415807843208304 13.483161568641664 6.5008100420236579 16.131639733910564 5.2969563305377951 6.982351526618003 12.520078599452971 7.2231222689151755 12.520078599452971 5.0561855882406226 5.5377270728349677 19.020888641476631 8.1862052381038648 10.59391266107559 5.5377270728349686 4.81541484594345 8.4269759804010373 5.0561855882406226 6.982351526618003 6.2600392997264853 7.9454344958066931 4.81541484594345 6.982351526618003 8.4269759804010373 8.1862052381038648 5.5377270728349677
leaf_count=1463 168 92 151 48 224 279 252 58 98 55 65 139 49 23 20 33 37 125 618 23 21 21 32 28 56 27 67 22 29 52 30 52 21 23 79 34 44 23 20 35 21 29 26 33 20 29 35 34 23
internal_value=-0.389112 -0.419024 -0.424402 -0.269436 -0.43426 -0.254897 -0.426503 -0.299667 -0.418522 -0.423447 -0.426867 -0.280249 -0.310208 -0.430554 -0.432293 -0.434661 -0.436787 -0.439095 -0.443928 -0.331756 -0.431706 -0.433945 -0.436237 -0.43903 -0.473155 -0.44171 -0.345342 -0.4443 -0.446555 -0.284643 -0.303142 -0.449171 -0.369978 -0.452455 -0.18099 -0.350518 -0.454642 -0.27677 -0.292895 -0.380924 -0.484754 -0.288412 -0.303064 -0.457702 -0.460257 -0.489475 -0.388007 -0.285314 -0.265668
internal_weight=0 960.434 938.284 240.048 867.738 228.491 813.805 142.296 753.131 724.72 711.478 128.331 94.8637 695.827 690.29 679.937 671.991 663.083 619.744 83.0659 436.999 431.943 426.887 419.182 182.745 412.44 77.5282 405.939 400.643 28.6517 70.5458 393.66 43.3387 381.14 86.1959 38.2825 375.602 10.3531 28.4109 48.8765 160.835 63.3227 56.3404 365.008 357.063 155.779 21.9101 50.0803 41.8941
internal_count=4986 3989 3897 997 3604 949 3380 591 3128 3010 2955 533 394 2890 2867 2824 2791 2754 2574 345 1815 1794 1773 1741 759 1713 322 1686 1664 119 293 1635 180 1583 358 159 1560 43 118 203 668 263 234 1516 1483 647 91 208 174
shrinkage=1


Tree=1
num_leaves=50
num_cat=0
split_feature=2103 1685 2326 1557 1557 1165 1976 1853 1536 1249 1165 341 535 47 373 1955 714 1872 1704 2385 1525 1009 2400 2040 751 1336 730 1853 2103 46 366 327 1778 1490 938 654 1167 1723 335 2037 1608 2284 2474 1365 1327 2140 1945 2288 2495
split_gain=343.58 93.4543 90.98 80.5942 67.7181 57.413 55.8935 39.3638 39.2795 33.0255 26.0286 25.3708 24.9275 24.4672 23.3635 20.5584 19.7935 18.6602 18.5511 17.535 18.7732 16.1884 16.1465 15.8048 16.8605 15.4567 14.8259 14.7103 14.919 14.1971 16.1268 14.2667 14.1253 14.2432 14.64 14.1215 13.6695 14.7132 13.0769 13.604 13.4036 13.5062 12.6382 12.619 12.5044 11.6688 13.4033 10.9722 10.8506
threshold=0.009251603695300193 0.029075308251279641 0.03169932608219423 1.0000000180025095e-35 0.0188146455849427 0.012883585865734203 0.034875252965734134 0.0074941649466473892 0.023706092281704123 0.028426980303313872 0.03943370187540416 0.10753733360044886 0.023095761801704268 0.064349776221752489 0.034210122447639831 0.033944342400882177 0.021864025450221349 0.011126676866346141 0.0028048446722824393 0.040147426996904274 0.0065073670995763116 0.038919972734164067 0.10780051555270084 0.038804043644302309 0.04161142641277589 0.024637576324882886 0.029232251494711568 0.011649067323018425 0.11938056101471932 0.036446943381660477 0.056539636027535332 0.037803531128076606 0.0030646359651975677 0.043485785572221984 0.020612814113984728 0.01551351419960381 0.091201551125140598 0.035115351392764178 0.014255618459452437 0.017750394284177316 0.019310283207161081 0.0537401633404073 0.10417271986236708 0.0069972706042885783 0.035798892445747355 0.0034647270171894126 0.059603266147662662 0.0079335887173749686 0.042044271751096464
decision_type=2 2 2 2 2 2 2 2 2 2 2 2 2 2 2 2 2 2 2 2 2 2 2 2 2 2 2 2 2 2 2 2 2 2 2 2 2 2 2 2 2 2 2 2 2 2 2 2 2
left_child=1 2 4 5 6 8 7 10 12 -8 11 13 14 15 21 16 17 18 19 20 22 23 26 24 27 -22 29 28 -2 30 31 36 33 34 35 -9 37 38 39 40 41 42 44 -20 -1 46 -19 -31 -4
right_child=3 -3 48 -5 -6 -7 9 32 -10 -11 -12 -13 -14 -15 -16 -17 -18 45 43 -21 25 -23 -24 -25 -26 -27 -28 -29 -30 47 -32 -33 -34 -35 -36 -37 -38 -39 -40 -41 -42 -43 -44 -45 -46 -47 -48 -49 -50
leaf_value=-0.013395753846626968 0.06970300269681988 0.17280617779851568 0.090086390849601461 -0.15729950190774072 -0.15184448798352543 0.18159527758924129 -0.11318987291935599 0.087358428646029024 -0.081714952442001276 0.12431079363061714 0.12447530663583578 0.13442281640740761 0.17224870038101334 -0.11073121004327205 0.20074563667492759 -0.10692942694493278 -0.13803458004773825 0.131891822789928 0.13557279577503012 -0.086702441567855171 -0.11409356961734539 0.2152052692721696 -0.16353117639618098 -0.078552936578589638 -0.081337015767556184 0.015432966186710223 0.16005241870418421 0.13629263323531227 -0.080260755503428441 -0.095524338174705903 0.11442587328594306 0.086270411672238534 -0.12433240572058563 -0.075612033402423562 -0.09619157046552651 -0.033888816199410247 -0.1505589516574804 0.094675870843513074 -0.07486265755449116 0.14137128270642266 -0.16505686771744871 0.11638001479489711 0.13071203509424975 -0.052399310153973269 -0.12616939770946406 -0.042693136827084997 -0.025509322768773171 0.044999008932017512 -0.033561567296163983
leaf_weight=162.46594333648682 30.032746285200119 22.791058719158173 63.463521435856819 11.115715026855467 51.951352596282959 88.740375369787216 104.85838763415813 65.225717425346375 13.701946765184401 6.2011559456586829 10.3062726855278 8.6247300505638105 32.439592480659485 43.232476115226746 12.173386096954344 34.738507151603699 15.662150233983992 17.316257610917095 11.111271068453791 53.813676655292511 38.019933342933655 5.7212956100702277 7.3585533350706092 9.703296557068823 7.7702698856592169 12.159416079521177 4.836066558957099 24.009410202503204 8.5146209597587568 33.312036231160164 10.301266625523565 13.714505419135092 5.2091929465532294 8.8429298251867277 5.732061803340911 11.264840245246885 7.5968704372644416 11.782546803355215 36.482511937618256 5.7855302393436423 5.7191128432750693 8.1341467350721341 5.7316351979970923 5.2630292922258368 10.465510964393614 10.517947062849997 7.8682008534669867 6.6688271164894095 7.9906609058380118
leaf_count=681 124 92 260 48 224 358 445 270 58 26 42 35 131 182 49 146 66 72 46 226 160 23 31 40 32 51 20 98 36 140 43 57 22 37 24 47 32 49 153 24 24 34 24 22 44 44 33 28 33
internal_value=0 -0.0272531 -0.0321572 0.105761 -0.0411833 0.118321 -0.0340534 -0.0235306 0.0793459 -0.0999287 -0.03307 -0.0358282 0.0962741 -0.0383596 0.0711061 -0.0325313 -0.0273838 -0.023821 -0.0293335 -0.0332725 -0.0257167 0.0527023 -0.0170601 0.0410851 0.057592 -0.0827068 -0.0137232 0.0748486 0.0365779 -0.0163646 -0.00835629 -0.0130779 0.0358202 0.0449814 0.0579511 0.0695022 -0.0184387 -0.0143679 -0.0198403 -0.00971754 -0.0142581 -0.00964112 -0.0153786 0.0751548 -0.0202206 0.0457705 0.0827161 -0.072085 0.0762589
internal_weight=0 952.52 929.729 243.923 858.275 232.807 806.323 695.264 144.067 111.06 598.989 588.683 130.365 580.058 97.925 536.825 502.087 486.425 450.722 434.348 380.534 85.7516 330.355 80.0303 70.327 50.1793 322.997 62.5568 38.5474 318.16 278.18 267.878 96.2747 91.0655 82.2226 76.4906 254.164 246.567 234.784 198.302 192.516 186.797 178.663 16.3743 172.931 35.7024 25.1845 39.9809 71.4542
internal_count=4986 3989 3897 997 3604 949 3380 2909 591 471 2509 2467 533 2432 402 2250 2104 2038 1889 1821 1595 353 1384 330 290 211 1353 258 160 1333 1165 1122 400 378 341 317 1065 1033 984 831 807 783 749 68 725 149 105 168 293
shrinkage=0.1


Tree=2
num_leaves=50
num_cat=0
